digraph Tree {
node [shape=box] ;
0 [label="Fruit type (general)=dry & splits open <= 0.5\nentropy = 0.012\nsamples = 956\nvalue = [[955, 1]\n[955, 1]\n[955, 1]\n...\n[955, 1]\n[955, 1]\n[955, 1]]"] ;
1 [label="Fusion of sepals and petals=fused <= 0.5\nentropy = 0.011\nsamples = 491\nvalue = [[491, 0]\n[490, 1]\n[490, 1]\n...\n[491, 0]\n[490, 1]\n[490, 1]]"] ;
0 -> 1 [labeldistance=2.5, labelangle=45, headlabel="True"] ;
2 [label="Wings on fruit=no wings or with wings <= 0.5\nentropy = 0.01\nsamples = 264\nvalue = [[264, 0]\n[264, 0]\n[263, 1]\n...\n[264, 0]\n[263, 1]\n[263, 1]]"] ;
1 -> 2 ;
3 [label="Leaf type=simple <= 0.5\nentropy = 0.009\nsamples = 129\nvalue = [[129, 0]\n[129, 0]\n[128, 1]\n...\n[129, 0]\n[129, 0]\n[128, 1]]"] ;
2 -> 3 ;
4 [label="Calyx symmetry=radially symmetrical <= 0.5\nentropy = 0.008\nsamples = 61\nvalue = [[61, 0]\n[61, 0]\n[61, 0]\n...\n[61, 0]\n[61, 0]\n[60, 1]]"] ;
3 -> 4 ;
5 [label="Petal and sepal colors=blue to purple or pink to red <= 0.5\nentropy = 0.007\nsamples = 34\nvalue = [[34, 0]\n[34, 0]\n[34, 0]\n...\n[34, 0]\n[34, 0]\n[34, 0]]"] ;
4 -> 5 ;
6 [label="Leaf blade edges=entire <= 0.5\nentropy = 0.006\nsamples = 21\nvalue = [[21, 0]\n[21, 0]\n[21, 0]\n...\n[21, 0]\n[21, 0]\n[21, 0]]"] ;
5 -> 6 ;
7 [label="Flower description=superior ovary & hypanthium <= 0.5\nentropy = 0.005\nsamples = 11\nvalue = [[11, 0]\n[11, 0]\n[11, 0]\n...\n[11, 0]\n[11, 0]\n[11, 0]]"] ;
6 -> 7 ;
8 [label="Leaf blade edges=lobes or teeth <= 0.5\nentropy = 0.004\nsamples = 6\nvalue = [[6, 0]\n[6, 0]\n[6, 0]\n...\n[6, 0]\n[6, 0]\n[6, 0]]"] ;
7 -> 8 ;
9 [label="Petal and sepal colors=green to brown or white <= 0.5\nentropy = 0.003\nsamples = 3\nvalue = [[3, 0]\n[3, 0]\n[3, 0]\n...\n[3, 0]\n[3, 0]\n[3, 0]]"] ;
8 -> 9 ;
10 [label="Leaf blade edges=lobes <= 0.5\nentropy = 0.002\nsamples = 2\nvalue = [[2, 0]\n[2, 0]\n[2, 0]\n...\n[2, 0]\n[2, 0]\n[2, 0]]"] ;
9 -> 10 ;
11 [label="entropy = 0.0\nsamples = 1\nvalue = [[1, 0]\n[1, 0]\n[1, 0]\n...\n[1, 0]\n[1, 0]\n[1, 0]]"] ;
10 -> 11 ;
12 [label="entropy = 0.0\nsamples = 1\nvalue = [[1, 0]\n[1, 0]\n[1, 0]\n...\n[1, 0]\n[1, 0]\n[1, 0]]"] ;
10 -> 12 ;
13 [label="entropy = 0.0\nsamples = 1\nvalue = [[1, 0]\n[1, 0]\n[1, 0]\n...\n[1, 0]\n[1, 0]\n[1, 0]]"] ;
9 -> 13 ;
14 [label="Fringed petal edges=fringed or not fringed <= 0.5\nentropy = 0.003\nsamples = 3\nvalue = [[3, 0]\n[3, 0]\n[3, 0]\n...\n[3, 0]\n[3, 0]\n[3, 0]]"] ;
8 -> 14 ;
15 [label="entropy = 0.002\nsamples = 2\nvalue = [[2, 0]\n[2, 0]\n[2, 0]\n...\n[2, 0]\n[2, 0]\n[2, 0]]"] ;
14 -> 15 ;
16 [label="entropy = 0.0\nsamples = 1\nvalue = [[1, 0]\n[1, 0]\n[1, 0]\n...\n[1, 0]\n[1, 0]\n[1, 0]]"] ;
14 -> 16 ;
17 [label="Flower petal color=yellow <= 0.5\nentropy = 0.004\nsamples = 5\nvalue = [[5, 0]\n[5, 0]\n[5, 0]\n...\n[5, 0]\n[5, 0]\n[5, 0]]"] ;
7 -> 17 ;
18 [label="Leaf blade edges=teeth or entire <= 0.5\nentropy = 0.003\nsamples = 3\nvalue = [[3, 0]\n[3, 0]\n[3, 0]\n...\n[3, 0]\n[3, 0]\n[3, 0]]"] ;
17 -> 18 ;
19 [label="Fruit type (general)=dry & splits open or dry & doesn't split open <= 0.5\nentropy = 0.002\nsamples = 2\nvalue = [[2, 0]\n[2, 0]\n[2, 0]\n...\n[2, 0]\n[2, 0]\n[2, 0]]"] ;
18 -> 19 ;
20 [label="entropy = 0.0\nsamples = 1\nvalue = [[1, 0]\n[1, 0]\n[1, 0]\n...\n[1, 0]\n[1, 0]\n[1, 0]]"] ;
19 -> 20 ;
21 [label="entropy = 0.0\nsamples = 1\nvalue = [[1, 0]\n[1, 0]\n[1, 0]\n...\n[1, 0]\n[1, 0]\n[1, 0]]"] ;
19 -> 21 ;
22 [label="entropy = 0.0\nsamples = 1\nvalue = [[1, 0]\n[1, 0]\n[1, 0]\n...\n[1, 0]\n[1, 0]\n[1, 0]]"] ;
18 -> 22 ;
23 [label="entropy = 0.002\nsamples = 2\nvalue = [[2, 0]\n[2, 0]\n[2, 0]\n...\n[2, 0]\n[2, 0]\n[2, 0]]"] ;
17 -> 23 ;
24 [label="Petal and sepal colors=blue to purple or pink to red or white <= 0.5\nentropy = 0.005\nsamples = 10\nvalue = [[10, 0]\n[10, 0]\n[10, 0]\n...\n[10, 0]\n[10, 0]\n[10, 0]]"] ;
6 -> 24 ;
25 [label="Flower petal color=yellow <= 0.5\nentropy = 0.004\nsamples = 7\nvalue = [[7, 0]\n[7, 0]\n[7, 0]\n...\n[7, 0]\n[7, 0]\n[7, 0]]"] ;
24 -> 25 ;
26 [label="Growth form=subshrub or herb <= 0.5\nentropy = 0.004\nsamples = 5\nvalue = [[5, 0]\n[5, 0]\n[5, 0]\n...\n[5, 0]\n[5, 0]\n[5, 0]]"] ;
25 -> 26 ;
27 [label="Flower petal color=other or white or yellow <= 0.5\nentropy = 0.003\nsamples = 3\nvalue = [[3, 0]\n[3, 0]\n[3, 0]\n...\n[3, 0]\n[3, 0]\n[3, 0]]"] ;
26 -> 27 ;
28 [label="Flower petal color=white or yellow <= 0.5\nentropy = 0.002\nsamples = 2\nvalue = [[2, 0]\n[2, 0]\n[2, 0]\n...\n[2, 0]\n[2, 0]\n[2, 0]]"] ;
27 -> 28 ;
29 [label="entropy = 0.0\nsamples = 1\nvalue = [[1, 0]\n[1, 0]\n[1, 0]\n...\n[1, 0]\n[1, 0]\n[1, 0]]"] ;
28 -> 29 ;
30 [label="entropy = 0.0\nsamples = 1\nvalue = [[1, 0]\n[1, 0]\n[1, 0]\n...\n[1, 0]\n[1, 0]\n[1, 0]]"] ;
28 -> 30 ;
31 [label="entropy = 0.0\nsamples = 1\nvalue = [[1, 0]\n[1, 0]\n[1, 0]\n...\n[1, 0]\n[1, 0]\n[1, 0]]"] ;
27 -> 31 ;
32 [label="Petal and sepal colors=blue to purple or white or yellow <= 0.5\nentropy = 0.002\nsamples = 2\nvalue = [[2, 0]\n[2, 0]\n[2, 0]\n...\n[2, 0]\n[2, 0]\n[2, 0]]"] ;
26 -> 32 ;
33 [label="entropy = 0.0\nsamples = 1\nvalue = [[1, 0]\n[1, 0]\n[1, 0]\n...\n[1, 0]\n[1, 0]\n[1, 0]]"] ;
32 -> 33 ;
34 [label="entropy = 0.0\nsamples = 1\nvalue = [[1, 0]\n[1, 0]\n[1, 0]\n...\n[1, 0]\n[1, 0]\n[1, 0]]"] ;
32 -> 34 ;
35 [label="Stamen number=10 <= 0.5\nentropy = 0.002\nsamples = 2\nvalue = [[2, 0]\n[2, 0]\n[2, 0]\n...\n[2, 0]\n[2, 0]\n[2, 0]]"] ;
25 -> 35 ;
36 [label="entropy = 0.0\nsamples = 1\nvalue = [[1, 0]\n[1, 0]\n[1, 0]\n...\n[1, 0]\n[1, 0]\n[1, 0]]"] ;
35 -> 36 ;
37 [label="entropy = 0.0\nsamples = 1\nvalue = [[1, 0]\n[1, 0]\n[1, 0]\n...\n[1, 0]\n[1, 0]\n[1, 0]]"] ;
35 -> 37 ;
38 [label="Leaf arrangement=alternate <= 0.5\nentropy = 0.003\nsamples = 3\nvalue = [[3, 0]\n[3, 0]\n[3, 0]\n...\n[3, 0]\n[3, 0]\n[3, 0]]"] ;
24 -> 38 ;
39 [label="entropy = 0.0\nsamples = 1\nvalue = [[1, 0]\n[1, 0]\n[1, 0]\n...\n[1, 0]\n[1, 0]\n[1, 0]]"] ;
38 -> 39 ;
40 [label="Growth form=herb <= 0.5\nentropy = 0.002\nsamples = 2\nvalue = [[2, 0]\n[2, 0]\n[2, 0]\n...\n[2, 0]\n[2, 0]\n[2, 0]]"] ;
38 -> 40 ;
41 [label="entropy = 0.0\nsamples = 1\nvalue = [[1, 0]\n[1, 0]\n[1, 0]\n...\n[1, 0]\n[1, 0]\n[1, 0]]"] ;
40 -> 41 ;
42 [label="entropy = 0.0\nsamples = 1\nvalue = [[1, 0]\n[1, 0]\n[1, 0]\n...\n[1, 0]\n[1, 0]\n[1, 0]]"] ;
40 -> 42 ;
43 [label="Growth form=herb <= 0.5\nentropy = 0.005\nsamples = 13\nvalue = [[13, 0]\n[13, 0]\n[13, 0]\n...\n[13, 0]\n[13, 0]\n[13, 0]]"] ;
5 -> 43 ;
44 [label="Stamen number=10 <= 0.5\nentropy = 0.003\nsamples = 3\nvalue = [[3, 0]\n[3, 0]\n[3, 0]\n...\n[3, 0]\n[3, 0]\n[3, 0]]"] ;
43 -> 44 ;
45 [label="entropy = 0.0\nsamples = 1\nvalue = [[1, 0]\n[1, 0]\n[1, 0]\n...\n[1, 0]\n[1, 0]\n[1, 0]]"] ;
44 -> 45 ;
46 [label="Growth form=subshrub or herb <= 0.5\nentropy = 0.002\nsamples = 2\nvalue = [[2, 0]\n[2, 0]\n[2, 0]\n...\n[2, 0]\n[2, 0]\n[2, 0]]"] ;
44 -> 46 ;
47 [label="entropy = 0.0\nsamples = 1\nvalue = [[1, 0]\n[1, 0]\n[1, 0]\n...\n[1, 0]\n[1, 0]\n[1, 0]]"] ;
46 -> 47 ;
48 [label="entropy = 0.0\nsamples = 1\nvalue = [[1, 0]\n[1, 0]\n[1, 0]\n...\n[1, 0]\n[1, 0]\n[1, 0]]"] ;
46 -> 48 ;
49 [label="Calyx symmetry=bilaterally symmetrical <= 0.5\nentropy = 0.005\nsamples = 10\nvalue = [[10, 0]\n[10, 0]\n[10, 0]\n...\n[10, 0]\n[10, 0]\n[10, 0]]"] ;
43 -> 49 ;
50 [label="entropy = 0.0\nsamples = 1\nvalue = [[1, 0]\n[1, 0]\n[1, 0]\n...\n[1, 0]\n[1, 0]\n[1, 0]]"] ;
49 -> 50 ;
51 [label="entropy = 0.005\nsamples = 9\nvalue = [[9, 0]\n[9, 0]\n[9, 0]\n...\n[9, 0]\n[9, 0]\n[9, 0]]"] ;
49 -> 51 ;
52 [label="Leaf blade edges=teeth <= 0.5\nentropy = 0.006\nsamples = 27\nvalue = [[27, 0]\n[27, 0]\n[27, 0]\n...\n[27, 0]\n[27, 0]\n[26, 1]]"] ;
4 -> 52 ;
53 [label="Stamen number=6 <= 0.5\nentropy = 0.005\nsamples = 14\nvalue = [[14, 0]\n[14, 0]\n[14, 0]\n...\n[14, 0]\n[14, 0]\n[13, 1]]"] ;
52 -> 53 ;
54 [label="Number of sepals, petals or tepals=5 <= 0.5\nentropy = 0.004\nsamples = 7\nvalue = [[7, 0]\n[7, 0]\n[7, 0]\n...\n[7, 0]\n[7, 0]\n[6, 1]]"] ;
53 -> 54 ;
55 [label="Flower description=superior ovary <= 0.5\nentropy = 0.003\nsamples = 3\nvalue = [[3, 0]\n[3, 0]\n[3, 0]\n...\n[3, 0]\n[3, 0]\n[3, 0]]"] ;
54 -> 55 ;
56 [label="entropy = 0.0\nsamples = 1\nvalue = [[1, 0]\n[1, 0]\n[1, 0]\n...\n[1, 0]\n[1, 0]\n[1, 0]]"] ;
55 -> 56 ;
57 [label="Leaf type=compound or simple <= 0.5\nentropy = 0.002\nsamples = 2\nvalue = [[2, 0]\n[2, 0]\n[2, 0]\n...\n[2, 0]\n[2, 0]\n[2, 0]]"] ;
55 -> 57 ;
58 [label="entropy = 0.0\nsamples = 1\nvalue = [[1, 0]\n[1, 0]\n[1, 0]\n...\n[1, 0]\n[1, 0]\n[1, 0]]"] ;
57 -> 58 ;
59 [label="entropy = 0.0\nsamples = 1\nvalue = [[1, 0]\n[1, 0]\n[1, 0]\n...\n[1, 0]\n[1, 0]\n[1, 0]]"] ;
57 -> 59 ;
60 [label="Fringed petal edges=fringed or not fringed <= 0.5\nentropy = 0.003\nsamples = 4\nvalue = [[4, 0]\n[4, 0]\n[4, 0]\n...\n[4, 0]\n[4, 0]\n[3, 1]]"] ;
54 -> 60 ;
61 [label="Petal and sepal colors=pink to red <= 0.5\nentropy = 0.002\nsamples = 2\nvalue = [[2, 0]\n[2, 0]\n[2, 0]\n...\n[2, 0]\n[2, 0]\n[2, 0]]"] ;
60 -> 61 ;
62 [label="entropy = 0.0\nsamples = 1\nvalue = [[1, 0]\n[1, 0]\n[1, 0]\n...\n[1, 0]\n[1, 0]\n[1, 0]]"] ;
61 -> 62 ;
63 [label="entropy = 0.0\nsamples = 1\nvalue = [[1, 0]\n[1, 0]\n[1, 0]\n...\n[1, 0]\n[1, 0]\n[1, 0]]"] ;
61 -> 63 ;
64 [label="Flower petal color=white <= 0.5\nentropy = 0.002\nsamples = 2\nvalue = [[2, 0]\n[2, 0]\n[2, 0]\n...\n[2, 0]\n[2, 0]\n[1, 1]]"] ;
60 -> 64 ;
65 [label="entropy = 0.0\nsamples = 1\nvalue = [[1, 0]\n[1, 0]\n[1, 0]\n...\n[1, 0]\n[1, 0]\n[0, 1]]"] ;
64 -> 65 ;
66 [label="entropy = 0.0\nsamples = 1\nvalue = [[1, 0]\n[1, 0]\n[1, 0]\n...\n[1, 0]\n[1, 0]\n[1, 0]]"] ;
64 -> 66 ;
67 [label="Growth form=subshrub or vine or herb <= 0.5\nentropy = 0.004\nsamples = 7\nvalue = [[7, 0]\n[7, 0]\n[7, 0]\n...\n[7, 0]\n[7, 0]\n[7, 0]]"] ;
53 -> 67 ;
68 [label="Flower symmetry=asymmetrical <= 0.5\nentropy = 0.003\nsamples = 3\nvalue = [[3, 0]\n[3, 0]\n[3, 0]\n...\n[3, 0]\n[3, 0]\n[3, 0]]"] ;
67 -> 68 ;
69 [label="Leaf type=compound or simple <= 0.5\nentropy = 0.002\nsamples = 2\nvalue = [[2, 0]\n[2, 0]\n[2, 0]\n...\n[2, 0]\n[2, 0]\n[2, 0]]"] ;
68 -> 69 ;
70 [label="entropy = 0.0\nsamples = 1\nvalue = [[1, 0]\n[1, 0]\n[1, 0]\n...\n[1, 0]\n[1, 0]\n[1, 0]]"] ;
69 -> 70 ;
71 [label="entropy = 0.0\nsamples = 1\nvalue = [[1, 0]\n[1, 0]\n[1, 0]\n...\n[1, 0]\n[1, 0]\n[1, 0]]"] ;
69 -> 71 ;
72 [label="entropy = 0.0\nsamples = 1\nvalue = [[1, 0]\n[1, 0]\n[1, 0]\n...\n[1, 0]\n[1, 0]\n[1, 0]]"] ;
68 -> 72 ;
73 [label="Flower petal color=white <= 0.5\nentropy = 0.003\nsamples = 4\nvalue = [[4, 0]\n[4, 0]\n[4, 0]\n...\n[4, 0]\n[4, 0]\n[4, 0]]"] ;
67 -> 73 ;
74 [label="Leaf type=compound or simple <= 0.5\nentropy = 0.003\nsamples = 3\nvalue = [[3, 0]\n[3, 0]\n[3, 0]\n...\n[3, 0]\n[3, 0]\n[3, 0]]"] ;
73 -> 74 ;
75 [label="entropy = 0.0\nsamples = 1\nvalue = [[1, 0]\n[1, 0]\n[1, 0]\n...\n[1, 0]\n[1, 0]\n[1, 0]]"] ;
74 -> 75 ;
76 [label="Flower petal color=yellow <= 0.5\nentropy = 0.002\nsamples = 2\nvalue = [[2, 0]\n[2, 0]\n[2, 0]\n...\n[2, 0]\n[2, 0]\n[2, 0]]"] ;
74 -> 76 ;
77 [label="entropy = 0.0\nsamples = 1\nvalue = [[1, 0]\n[1, 0]\n[1, 0]\n...\n[1, 0]\n[1, 0]\n[1, 0]]"] ;
76 -> 77 ;
78 [label="entropy = 0.0\nsamples = 1\nvalue = [[1, 0]\n[1, 0]\n[1, 0]\n...\n[1, 0]\n[1, 0]\n[1, 0]]"] ;
76 -> 78 ;
79 [label="entropy = 0.0\nsamples = 1\nvalue = [[1, 0]\n[1, 0]\n[1, 0]\n...\n[1, 0]\n[1, 0]\n[1, 0]]"] ;
73 -> 79 ;
80 [label="Flower petal color=yellow <= 0.5\nentropy = 0.005\nsamples = 13\nvalue = [[13, 0]\n[13, 0]\n[13, 0]\n...\n[13, 0]\n[13, 0]\n[13, 0]]"] ;
52 -> 80 ;
81 [label="Fusion of sepals and petals=? <= 0.5\nentropy = 0.003\nsamples = 3\nvalue = [[3, 0]\n[3, 0]\n[3, 0]\n...\n[3, 0]\n[3, 0]\n[3, 0]]"] ;
80 -> 81 ;
82 [label="Number of sepals, petals or tepals=5 <= 0.5\nentropy = 0.002\nsamples = 2\nvalue = [[2, 0]\n[2, 0]\n[2, 0]\n...\n[2, 0]\n[2, 0]\n[2, 0]]"] ;
81 -> 82 ;
83 [label="entropy = 0.0\nsamples = 1\nvalue = [[1, 0]\n[1, 0]\n[1, 0]\n...\n[1, 0]\n[1, 0]\n[1, 0]]"] ;
82 -> 83 ;
84 [label="entropy = 0.0\nsamples = 1\nvalue = [[1, 0]\n[1, 0]\n[1, 0]\n...\n[1, 0]\n[1, 0]\n[1, 0]]"] ;
82 -> 84 ;
85 [label="entropy = 0.0\nsamples = 1\nvalue = [[1, 0]\n[1, 0]\n[1, 0]\n...\n[1, 0]\n[1, 0]\n[1, 0]]"] ;
81 -> 85 ;
86 [label="entropy = 0.005\nsamples = 10\nvalue = [[10, 0]\n[10, 0]\n[10, 0]\n...\n[10, 0]\n[10, 0]\n[10, 0]]"] ;
80 -> 86 ;
87 [label="Fusion of sepals and petals=unfused or fused <= 0.5\nentropy = 0.008\nsamples = 68\nvalue = [[68, 0]\n[68, 0]\n[67, 1]\n...\n[68, 0]\n[68, 0]\n[68, 0]]"] ;
3 -> 87 ;
88 [label="Growth form=subshrub or vine or herb <= 0.5\nentropy = 0.007\nsamples = 35\nvalue = [[35, 0]\n[35, 0]\n[35, 0]\n...\n[35, 0]\n[35, 0]\n[35, 0]]"] ;
87 -> 88 ;
89 [label="Leaf blade edges=entire <= 0.5\nentropy = 0.006\nsamples = 20\nvalue = [[20, 0]\n[20, 0]\n[20, 0]\n...\n[20, 0]\n[20, 0]\n[20, 0]]"] ;
88 -> 89 ;
90 [label="Leaf arrangement=opposite <= 0.5\nentropy = 0.005\nsamples = 9\nvalue = [[9, 0]\n[9, 0]\n[9, 0]\n...\n[9, 0]\n[9, 0]\n[9, 0]]"] ;
89 -> 90 ;
91 [label="Leaf blade edges=teeth <= 0.5\nentropy = 0.003\nsamples = 4\nvalue = [[4, 0]\n[4, 0]\n[4, 0]\n...\n[4, 0]\n[4, 0]\n[4, 0]]"] ;
90 -> 91 ;
92 [label="Petal and sepal colors=pink to red <= 0.5\nentropy = 0.002\nsamples = 2\nvalue = [[2, 0]\n[2, 0]\n[2, 0]\n...\n[2, 0]\n[2, 0]\n[2, 0]]"] ;
91 -> 92 ;
93 [label="entropy = 0.0\nsamples = 1\nvalue = [[1, 0]\n[1, 0]\n[1, 0]\n...\n[1, 0]\n[1, 0]\n[1, 0]]"] ;
92 -> 93 ;
94 [label="entropy = 0.0\nsamples = 1\nvalue = [[1, 0]\n[1, 0]\n[1, 0]\n...\n[1, 0]\n[1, 0]\n[1, 0]]"] ;
92 -> 94 ;
95 [label="entropy = 0.002\nsamples = 2\nvalue = [[2, 0]\n[2, 0]\n[2, 0]\n...\n[2, 0]\n[2, 0]\n[2, 0]]"] ;
91 -> 95 ;
96 [label="Flower petal color=blue to purple or pink to red <= 0.5\nentropy = 0.004\nsamples = 5\nvalue = [[5, 0]\n[5, 0]\n[5, 0]\n...\n[5, 0]\n[5, 0]\n[5, 0]]"] ;
90 -> 96 ;
97 [label="Petal and sepal colors=blue to purple <= 0.5\nentropy = 0.003\nsamples = 3\nvalue = [[3, 0]\n[3, 0]\n[3, 0]\n...\n[3, 0]\n[3, 0]\n[3, 0]]"] ;
96 -> 97 ;
98 [label="entropy = 0.0\nsamples = 1\nvalue = [[1, 0]\n[1, 0]\n[1, 0]\n...\n[1, 0]\n[1, 0]\n[1, 0]]"] ;
97 -> 98 ;
99 [label="entropy = 0.002\nsamples = 2\nvalue = [[2, 0]\n[2, 0]\n[2, 0]\n...\n[2, 0]\n[2, 0]\n[2, 0]]"] ;
97 -> 99 ;
100 [label="entropy = 0.002\nsamples = 2\nvalue = [[2, 0]\n[2, 0]\n[2, 0]\n...\n[2, 0]\n[2, 0]\n[2, 0]]"] ;
96 -> 100 ;
101 [label="Fringed petal edges=fringed or not fringed <= 0.5\nentropy = 0.005\nsamples = 11\nvalue = [[11, 0]\n[11, 0]\n[11, 0]\n...\n[11, 0]\n[11, 0]\n[11, 0]]"] ;
89 -> 101 ;
102 [label="Fringed petal edges=not fringed <= 0.5\nentropy = 0.004\nsamples = 6\nvalue = [[6, 0]\n[6, 0]\n[6, 0]\n...\n[6, 0]\n[6, 0]\n[6, 0]]"] ;
101 -> 102 ;
103 [label="Fruit type (general)=dry & splits open or dry & doesn't split open <= 0.5\nentropy = 0.003\nsamples = 3\nvalue = [[3, 0]\n[3, 0]\n[3, 0]\n...\n[3, 0]\n[3, 0]\n[3, 0]]"] ;
102 -> 103 ;
104 [label="entropy = 0.0\nsamples = 1\nvalue = [[1, 0]\n[1, 0]\n[1, 0]\n...\n[1, 0]\n[1, 0]\n[1, 0]]"] ;
103 -> 104 ;
105 [label="entropy = 0.002\nsamples = 2\nvalue = [[2, 0]\n[2, 0]\n[2, 0]\n...\n[2, 0]\n[2, 0]\n[2, 0]]"] ;
103 -> 105 ;
106 [label="Petal and sepal colors=yellow <= 0.5\nentropy = 0.003\nsamples = 3\nvalue = [[3, 0]\n[3, 0]\n[3, 0]\n...\n[3, 0]\n[3, 0]\n[3, 0]]"] ;
102 -> 106 ;
107 [label="Number of sepals, petals or tepals=4 <= 0.5\nentropy = 0.002\nsamples = 2\nvalue = [[2, 0]\n[2, 0]\n[2, 0]\n...\n[2, 0]\n[2, 0]\n[2, 0]]"] ;
106 -> 107 ;
108 [label="entropy = 0.0\nsamples = 1\nvalue = [[1, 0]\n[1, 0]\n[1, 0]\n...\n[1, 0]\n[1, 0]\n[1, 0]]"] ;
107 -> 108 ;
109 [label="entropy = 0.0\nsamples = 1\nvalue = [[1, 0]\n[1, 0]\n[1, 0]\n...\n[1, 0]\n[1, 0]\n[1, 0]]"] ;
107 -> 109 ;
110 [label="entropy = 0.0\nsamples = 1\nvalue = [[1, 0]\n[1, 0]\n[1, 0]\n...\n[1, 0]\n[1, 0]\n[1, 0]]"] ;
106 -> 110 ;
111 [label="Wings on fruit=no wings <= 0.5\nentropy = 0.004\nsamples = 5\nvalue = [[5, 0]\n[5, 0]\n[5, 0]\n...\n[5, 0]\n[5, 0]\n[5, 0]]"] ;
101 -> 111 ;
112 [label="Stamen number=9 <= 0.5\nentropy = 0.002\nsamples = 2\nvalue = [[2, 0]\n[2, 0]\n[2, 0]\n...\n[2, 0]\n[2, 0]\n[2, 0]]"] ;
111 -> 112 ;
113 [label="entropy = 0.0\nsamples = 1\nvalue = [[1, 0]\n[1, 0]\n[1, 0]\n...\n[1, 0]\n[1, 0]\n[1, 0]]"] ;
112 -> 113 ;
114 [label="entropy = 0.0\nsamples = 1\nvalue = [[1, 0]\n[1, 0]\n[1, 0]\n...\n[1, 0]\n[1, 0]\n[1, 0]]"] ;
112 -> 114 ;
115 [label="Stamen number=8 <= 0.5\nentropy = 0.003\nsamples = 3\nvalue = [[3, 0]\n[3, 0]\n[3, 0]\n...\n[3, 0]\n[3, 0]\n[3, 0]]"] ;
111 -> 115 ;
116 [label="entropy = 0.0\nsamples = 1\nvalue = [[1, 0]\n[1, 0]\n[1, 0]\n...\n[1, 0]\n[1, 0]\n[1, 0]]"] ;
115 -> 116 ;
117 [label="Petal and sepal colors=green to brown or white <= 0.5\nentropy = 0.002\nsamples = 2\nvalue = [[2, 0]\n[2, 0]\n[2, 0]\n...\n[2, 0]\n[2, 0]\n[2, 0]]"] ;
115 -> 117 ;
118 [label="entropy = 0.0\nsamples = 1\nvalue = [[1, 0]\n[1, 0]\n[1, 0]\n...\n[1, 0]\n[1, 0]\n[1, 0]]"] ;
117 -> 118 ;
119 [label="entropy = 0.0\nsamples = 1\nvalue = [[1, 0]\n[1, 0]\n[1, 0]\n...\n[1, 0]\n[1, 0]\n[1, 0]]"] ;
117 -> 119 ;
120 [label="Fruit type (general)=dry & doesn't split open <= 0.5\nentropy = 0.006\nsamples = 15\nvalue = [[15, 0]\n[15, 0]\n[15, 0]\n...\n[15, 0]\n[15, 0]\n[15, 0]]"] ;
88 -> 120 ;
121 [label="Leaf blade edges=teeth or entire <= 0.5\nentropy = 0.004\nsamples = 7\nvalue = [[7, 0]\n[7, 0]\n[7, 0]\n...\n[7, 0]\n[7, 0]\n[7, 0]]"] ;
120 -> 121 ;
122 [label="Flower description=inferior ovary <= 0.5\nentropy = 0.003\nsamples = 4\nvalue = [[4, 0]\n[4, 0]\n[4, 0]\n...\n[4, 0]\n[4, 0]\n[4, 0]]"] ;
121 -> 122 ;
123 [label="Stamen number=5 <= 0.5\nentropy = 0.002\nsamples = 2\nvalue = [[2, 0]\n[2, 0]\n[2, 0]\n...\n[2, 0]\n[2, 0]\n[2, 0]]"] ;
122 -> 123 ;
124 [label="entropy = 0.0\nsamples = 1\nvalue = [[1, 0]\n[1, 0]\n[1, 0]\n...\n[1, 0]\n[1, 0]\n[1, 0]]"] ;
123 -> 124 ;
125 [label="entropy = 0.0\nsamples = 1\nvalue = [[1, 0]\n[1, 0]\n[1, 0]\n...\n[1, 0]\n[1, 0]\n[1, 0]]"] ;
123 -> 125 ;
126 [label="Petal and sepal colors=pink to red or yellow <= 0.5\nentropy = 0.002\nsamples = 2\nvalue = [[2, 0]\n[2, 0]\n[2, 0]\n...\n[2, 0]\n[2, 0]\n[2, 0]]"] ;
122 -> 126 ;
127 [label="entropy = 0.0\nsamples = 1\nvalue = [[1, 0]\n[1, 0]\n[1, 0]\n...\n[1, 0]\n[1, 0]\n[1, 0]]"] ;
126 -> 127 ;
128 [label="entropy = 0.0\nsamples = 1\nvalue = [[1, 0]\n[1, 0]\n[1, 0]\n...\n[1, 0]\n[1, 0]\n[1, 0]]"] ;
126 -> 128 ;
129 [label="Flower symmetry=bilaterally symmetrical <= 0.5\nentropy = 0.003\nsamples = 3\nvalue = [[3, 0]\n[3, 0]\n[3, 0]\n...\n[3, 0]\n[3, 0]\n[3, 0]]"] ;
121 -> 129 ;
130 [label="Wings on fruit=no wings <= 0.5\nentropy = 0.002\nsamples = 2\nvalue = [[2, 0]\n[2, 0]\n[2, 0]\n...\n[2, 0]\n[2, 0]\n[2, 0]]"] ;
129 -> 130 ;
131 [label="entropy = 0.0\nsamples = 1\nvalue = [[1, 0]\n[1, 0]\n[1, 0]\n...\n[1, 0]\n[1, 0]\n[1, 0]]"] ;
130 -> 131 ;
132 [label="entropy = 0.0\nsamples = 1\nvalue = [[1, 0]\n[1, 0]\n[1, 0]\n...\n[1, 0]\n[1, 0]\n[1, 0]]"] ;
130 -> 132 ;
133 [label="entropy = 0.0\nsamples = 1\nvalue = [[1, 0]\n[1, 0]\n[1, 0]\n...\n[1, 0]\n[1, 0]\n[1, 0]]"] ;
129 -> 133 ;
134 [label="Flower symmetry=radially symmetrical or bilaterally symmetrical <= 0.5\nentropy = 0.005\nsamples = 8\nvalue = [[8, 0]\n[8, 0]\n[8, 0]\n...\n[8, 0]\n[8, 0]\n[8, 0]]"] ;
120 -> 134 ;
135 [label="Flower petal color=? <= 0.5\nentropy = 0.004\nsamples = 5\nvalue = [[5, 0]\n[5, 0]\n[5, 0]\n...\n[5, 0]\n[5, 0]\n[5, 0]]"] ;
134 -> 135 ;
136 [label="Flower petal color=yellow <= 0.5\nentropy = 0.002\nsamples = 2\nvalue = [[2, 0]\n[2, 0]\n[2, 0]\n...\n[2, 0]\n[2, 0]\n[2, 0]]"] ;
135 -> 136 ;
137 [label="entropy = 0.0\nsamples = 1\nvalue = [[1, 0]\n[1, 0]\n[1, 0]\n...\n[1, 0]\n[1, 0]\n[1, 0]]"] ;
136 -> 137 ;
138 [label="entropy = 0.0\nsamples = 1\nvalue = [[1, 0]\n[1, 0]\n[1, 0]\n...\n[1, 0]\n[1, 0]\n[1, 0]]"] ;
136 -> 138 ;
139 [label="Fusion of sepals and petals=unfused <= 0.5\nentropy = 0.003\nsamples = 3\nvalue = [[3, 0]\n[3, 0]\n[3, 0]\n...\n[3, 0]\n[3, 0]\n[3, 0]]"] ;
135 -> 139 ;
140 [label="entropy = 0.0\nsamples = 1\nvalue = [[1, 0]\n[1, 0]\n[1, 0]\n...\n[1, 0]\n[1, 0]\n[1, 0]]"] ;
139 -> 140 ;
141 [label="Stamen number=0 or 3 or 4 or 5 <= 0.5\nentropy = 0.002\nsamples = 2\nvalue = [[2, 0]\n[2, 0]\n[2, 0]\n...\n[2, 0]\n[2, 0]\n[2, 0]]"] ;
139 -> 141 ;
142 [label="entropy = 0.0\nsamples = 1\nvalue = [[1, 0]\n[1, 0]\n[1, 0]\n...\n[1, 0]\n[1, 0]\n[1, 0]]"] ;
141 -> 142 ;
143 [label="entropy = 0.0\nsamples = 1\nvalue = [[1, 0]\n[1, 0]\n[1, 0]\n...\n[1, 0]\n[1, 0]\n[1, 0]]"] ;
141 -> 143 ;
144 [label="Stamen number=0 or 5 <= 0.5\nentropy = 0.003\nsamples = 3\nvalue = [[3, 0]\n[3, 0]\n[3, 0]\n...\n[3, 0]\n[3, 0]\n[3, 0]]"] ;
134 -> 144 ;
145 [label="Number of sepals, petals or tepals=2 or 3 <= 0.5\nentropy = 0.002\nsamples = 2\nvalue = [[2, 0]\n[2, 0]\n[2, 0]\n...\n[2, 0]\n[2, 0]\n[2, 0]]"] ;
144 -> 145 ;
146 [label="entropy = 0.0\nsamples = 1\nvalue = [[1, 0]\n[1, 0]\n[1, 0]\n...\n[1, 0]\n[1, 0]\n[1, 0]]"] ;
145 -> 146 ;
147 [label="entropy = 0.0\nsamples = 1\nvalue = [[1, 0]\n[1, 0]\n[1, 0]\n...\n[1, 0]\n[1, 0]\n[1, 0]]"] ;
145 -> 147 ;
148 [label="entropy = 0.0\nsamples = 1\nvalue = [[1, 0]\n[1, 0]\n[1, 0]\n...\n[1, 0]\n[1, 0]\n[1, 0]]"] ;
144 -> 148 ;
149 [label="Flower petal color=? <= 0.5\nentropy = 0.007\nsamples = 33\nvalue = [[33, 0]\n[33, 0]\n[32, 1]\n...\n[33, 0]\n[33, 0]\n[33, 0]]"] ;
87 -> 149 ;
150 [label="Fruit type (general)=dry & doesn't split open <= 0.5\nentropy = 0.006\nsamples = 17\nvalue = [[17, 0]\n[17, 0]\n[16, 1]\n...\n[17, 0]\n[17, 0]\n[17, 0]]"] ;
149 -> 150 ;
151 [label="Fruit type (general)=dry & splits open or dry & doesn't split open or fleshy <= 0.5\nentropy = 0.005\nsamples = 9\nvalue = [[9, 0]\n[9, 0]\n[8, 1]\n...\n[9, 0]\n[9, 0]\n[9, 0]]"] ;
150 -> 151 ;
152 [label="Stamen number=13 <= 0.5\nentropy = 0.003\nsamples = 4\nvalue = [[4, 0]\n[4, 0]\n[3, 1]\n...\n[4, 0]\n[4, 0]\n[4, 0]]"] ;
151 -> 152 ;
153 [label="Number of sepals, petals or tepals=1 or 2 or 3 or 4 or 5 or 0 or 6 or 7 <= 0.5\nentropy = 0.002\nsamples = 2\nvalue = [[2, 0]\n[2, 0]\n[2, 0]\n...\n[2, 0]\n[2, 0]\n[2, 0]]"] ;
152 -> 153 ;
154 [label="entropy = 0.0\nsamples = 1\nvalue = [[1, 0]\n[1, 0]\n[1, 0]\n...\n[1, 0]\n[1, 0]\n[1, 0]]"] ;
153 -> 154 ;
155 [label="entropy = 0.0\nsamples = 1\nvalue = [[1, 0]\n[1, 0]\n[1, 0]\n...\n[1, 0]\n[1, 0]\n[1, 0]]"] ;
153 -> 155 ;
156 [label="Leaf blade edges=lobes or teeth <= 0.5\nentropy = 0.002\nsamples = 2\nvalue = [[2, 0]\n[2, 0]\n[1, 1]\n...\n[2, 0]\n[2, 0]\n[2, 0]]"] ;
152 -> 156 ;
157 [label="entropy = 0.0\nsamples = 1\nvalue = [[1, 0]\n[1, 0]\n[0, 1]\n...\n[1, 0]\n[1, 0]\n[1, 0]]"] ;
156 -> 157 ;
158 [label="entropy = 0.0\nsamples = 1\nvalue = [[1, 0]\n[1, 0]\n[1, 0]\n...\n[1, 0]\n[1, 0]\n[1, 0]]"] ;
156 -> 158 ;
159 [label="Stamen number=0 or 1 or 3 or 4 or 5 or 6 or 7 or 8 or 9 or 10 or 11 or 12 or 13 <= 0.5\nentropy = 0.004\nsamples = 5\nvalue = [[5, 0]\n[5, 0]\n[5, 0]\n...\n[5, 0]\n[5, 0]\n[5, 0]]"] ;
151 -> 159 ;
160 [label="Calyx symmetry=radially symmetrical or bilaterally symmetrical <= 0.5\nentropy = 0.002\nsamples = 2\nvalue = [[2, 0]\n[2, 0]\n[2, 0]\n...\n[2, 0]\n[2, 0]\n[2, 0]]"] ;
159 -> 160 ;
161 [label="entropy = 0.0\nsamples = 1\nvalue = [[1, 0]\n[1, 0]\n[1, 0]\n...\n[1, 0]\n[1, 0]\n[1, 0]]"] ;
160 -> 161 ;
162 [label="entropy = 0.0\nsamples = 1\nvalue = [[1, 0]\n[1, 0]\n[1, 0]\n...\n[1, 0]\n[1, 0]\n[1, 0]]"] ;
160 -> 162 ;
163 [label="Flower symmetry=bilaterally symmetrical <= 0.5\nentropy = 0.003\nsamples = 3\nvalue = [[3, 0]\n[3, 0]\n[3, 0]\n...\n[3, 0]\n[3, 0]\n[3, 0]]"] ;
159 -> 163 ;
164 [label="Flower petal color=blue to purple or pink to red <= 0.5\nentropy = 0.002\nsamples = 2\nvalue = [[2, 0]\n[2, 0]\n[2, 0]\n...\n[2, 0]\n[2, 0]\n[2, 0]]"] ;
163 -> 164 ;
165 [label="entropy = 0.0\nsamples = 1\nvalue = [[1, 0]\n[1, 0]\n[1, 0]\n...\n[1, 0]\n[1, 0]\n[1, 0]]"] ;
164 -> 165 ;
166 [label="entropy = 0.0\nsamples = 1\nvalue = [[1, 0]\n[1, 0]\n[1, 0]\n...\n[1, 0]\n[1, 0]\n[1, 0]]"] ;
164 -> 166 ;
167 [label="entropy = 0.0\nsamples = 1\nvalue = [[1, 0]\n[1, 0]\n[1, 0]\n...\n[1, 0]\n[1, 0]\n[1, 0]]"] ;
163 -> 167 ;
168 [label="Leaf blade edges=lobes <= 0.5\nentropy = 0.005\nsamples = 8\nvalue = [[8, 0]\n[8, 0]\n[8, 0]\n...\n[8, 0]\n[8, 0]\n[8, 0]]"] ;
150 -> 168 ;
169 [label="Petal and sepal colors=blue to purple or yellow <= 0.5\nentropy = 0.003\nsamples = 3\nvalue = [[3, 0]\n[3, 0]\n[3, 0]\n...\n[3, 0]\n[3, 0]\n[3, 0]]"] ;
168 -> 169 ;
170 [label="Stamen number=5 <= 0.5\nentropy = 0.002\nsamples = 2\nvalue = [[2, 0]\n[2, 0]\n[2, 0]\n...\n[2, 0]\n[2, 0]\n[2, 0]]"] ;
169 -> 170 ;
171 [label="entropy = 0.0\nsamples = 1\nvalue = [[1, 0]\n[1, 0]\n[1, 0]\n...\n[1, 0]\n[1, 0]\n[1, 0]]"] ;
170 -> 171 ;
172 [label="entropy = 0.0\nsamples = 1\nvalue = [[1, 0]\n[1, 0]\n[1, 0]\n...\n[1, 0]\n[1, 0]\n[1, 0]]"] ;
170 -> 172 ;
173 [label="entropy = 0.0\nsamples = 1\nvalue = [[1, 0]\n[1, 0]\n[1, 0]\n...\n[1, 0]\n[1, 0]\n[1, 0]]"] ;
169 -> 173 ;
174 [label="Petal and sepal colors=blue to purple or pink to red or white <= 0.5\nentropy = 0.004\nsamples = 5\nvalue = [[5, 0]\n[5, 0]\n[5, 0]\n...\n[5, 0]\n[5, 0]\n[5, 0]]"] ;
168 -> 174 ;
175 [label="Petal and sepal colors=pink to red or white <= 0.5\nentropy = 0.003\nsamples = 3\nvalue = [[3, 0]\n[3, 0]\n[3, 0]\n...\n[3, 0]\n[3, 0]\n[3, 0]]"] ;
174 -> 175 ;
176 [label="entropy = 0.0\nsamples = 1\nvalue = [[1, 0]\n[1, 0]\n[1, 0]\n...\n[1, 0]\n[1, 0]\n[1, 0]]"] ;
175 -> 176 ;
177 [label="entropy = 0.002\nsamples = 2\nvalue = [[2, 0]\n[2, 0]\n[2, 0]\n...\n[2, 0]\n[2, 0]\n[2, 0]]"] ;
175 -> 177 ;
178 [label="entropy = 0.002\nsamples = 2\nvalue = [[2, 0]\n[2, 0]\n[2, 0]\n...\n[2, 0]\n[2, 0]\n[2, 0]]"] ;
174 -> 178 ;
179 [label="Fringed petal edges=? <= 0.5\nentropy = 0.006\nsamples = 16\nvalue = [[16, 0]\n[16, 0]\n[16, 0]\n...\n[16, 0]\n[16, 0]\n[16, 0]]"] ;
149 -> 179 ;
180 [label="Fruit type (general)=dry & doesn't split open <= 0.5\nentropy = 0.005\nsamples = 8\nvalue = [[8, 0]\n[8, 0]\n[8, 0]\n...\n[8, 0]\n[8, 0]\n[8, 0]]"] ;
179 -> 180 ;
181 [label="Petal and sepal colors=green to brown <= 0.5\nentropy = 0.003\nsamples = 4\nvalue = [[4, 0]\n[4, 0]\n[4, 0]\n...\n[4, 0]\n[4, 0]\n[4, 0]]"] ;
180 -> 181 ;
182 [label="Leaf blade edges=teeth <= 0.5\nentropy = 0.002\nsamples = 2\nvalue = [[2, 0]\n[2, 0]\n[2, 0]\n...\n[2, 0]\n[2, 0]\n[2, 0]]"] ;
181 -> 182 ;
183 [label="entropy = 0.0\nsamples = 1\nvalue = [[1, 0]\n[1, 0]\n[1, 0]\n...\n[1, 0]\n[1, 0]\n[1, 0]]"] ;
182 -> 183 ;
184 [label="entropy = 0.0\nsamples = 1\nvalue = [[1, 0]\n[1, 0]\n[1, 0]\n...\n[1, 0]\n[1, 0]\n[1, 0]]"] ;
182 -> 184 ;
185 [label="Flower symmetry=radially symmetrical or bilaterally symmetrical <= 0.5\nentropy = 0.002\nsamples = 2\nvalue = [[2, 0]\n[2, 0]\n[2, 0]\n...\n[2, 0]\n[2, 0]\n[2, 0]]"] ;
181 -> 185 ;
186 [label="entropy = 0.0\nsamples = 1\nvalue = [[1, 0]\n[1, 0]\n[1, 0]\n...\n[1, 0]\n[1, 0]\n[1, 0]]"] ;
185 -> 186 ;
187 [label="entropy = 0.0\nsamples = 1\nvalue = [[1, 0]\n[1, 0]\n[1, 0]\n...\n[1, 0]\n[1, 0]\n[1, 0]]"] ;
185 -> 187 ;
188 [label="Leaf blade edges=teeth or entire <= 0.5\nentropy = 0.003\nsamples = 4\nvalue = [[4, 0]\n[4, 0]\n[4, 0]\n...\n[4, 0]\n[4, 0]\n[4, 0]]"] ;
180 -> 188 ;
189 [label="Leaf blade edges=lobes or teeth <= 0.5\nentropy = 0.002\nsamples = 2\nvalue = [[2, 0]\n[2, 0]\n[2, 0]\n...\n[2, 0]\n[2, 0]\n[2, 0]]"] ;
188 -> 189 ;
190 [label="entropy = 0.0\nsamples = 1\nvalue = [[1, 0]\n[1, 0]\n[1, 0]\n...\n[1, 0]\n[1, 0]\n[1, 0]]"] ;
189 -> 190 ;
191 [label="entropy = 0.0\nsamples = 1\nvalue = [[1, 0]\n[1, 0]\n[1, 0]\n...\n[1, 0]\n[1, 0]\n[1, 0]]"] ;
189 -> 191 ;
192 [label="Stamen number=0 or 1 <= 0.5\nentropy = 0.002\nsamples = 2\nvalue = [[2, 0]\n[2, 0]\n[2, 0]\n...\n[2, 0]\n[2, 0]\n[2, 0]]"] ;
188 -> 192 ;
193 [label="entropy = 0.0\nsamples = 1\nvalue = [[1, 0]\n[1, 0]\n[1, 0]\n...\n[1, 0]\n[1, 0]\n[1, 0]]"] ;
192 -> 193 ;
194 [label="entropy = 0.0\nsamples = 1\nvalue = [[1, 0]\n[1, 0]\n[1, 0]\n...\n[1, 0]\n[1, 0]\n[1, 0]]"] ;
192 -> 194 ;
195 [label="Stamen number=5 <= 0.5\nentropy = 0.005\nsamples = 8\nvalue = [[8, 0]\n[8, 0]\n[8, 0]\n...\n[8, 0]\n[8, 0]\n[8, 0]]"] ;
179 -> 195 ;
196 [label="Stamen number=0 or 4 <= 0.5\nentropy = 0.003\nsamples = 4\nvalue = [[4, 0]\n[4, 0]\n[4, 0]\n...\n[4, 0]\n[4, 0]\n[4, 0]]"] ;
195 -> 196 ;
197 [label="Flower description=superior ovary <= 0.5\nentropy = 0.002\nsamples = 2\nvalue = [[2, 0]\n[2, 0]\n[2, 0]\n...\n[2, 0]\n[2, 0]\n[2, 0]]"] ;
196 -> 197 ;
198 [label="entropy = 0.0\nsamples = 1\nvalue = [[1, 0]\n[1, 0]\n[1, 0]\n...\n[1, 0]\n[1, 0]\n[1, 0]]"] ;
197 -> 198 ;
199 [label="entropy = 0.0\nsamples = 1\nvalue = [[1, 0]\n[1, 0]\n[1, 0]\n...\n[1, 0]\n[1, 0]\n[1, 0]]"] ;
197 -> 199 ;
200 [label="Petal and sepal colors=green to brown or pink to red <= 0.5\nentropy = 0.002\nsamples = 2\nvalue = [[2, 0]\n[2, 0]\n[2, 0]\n...\n[2, 0]\n[2, 0]\n[2, 0]]"] ;
196 -> 200 ;
201 [label="entropy = 0.0\nsamples = 1\nvalue = [[1, 0]\n[1, 0]\n[1, 0]\n...\n[1, 0]\n[1, 0]\n[1, 0]]"] ;
200 -> 201 ;
202 [label="entropy = 0.0\nsamples = 1\nvalue = [[1, 0]\n[1, 0]\n[1, 0]\n...\n[1, 0]\n[1, 0]\n[1, 0]]"] ;
200 -> 202 ;
203 [label="Number of sepals, petals or tepals=5 or 0 <= 0.5\nentropy = 0.003\nsamples = 4\nvalue = [[4, 0]\n[4, 0]\n[4, 0]\n...\n[4, 0]\n[4, 0]\n[4, 0]]"] ;
195 -> 203 ;
204 [label="Growth form=herb <= 0.5\nentropy = 0.002\nsamples = 2\nvalue = [[2, 0]\n[2, 0]\n[2, 0]\n...\n[2, 0]\n[2, 0]\n[2, 0]]"] ;
203 -> 204 ;
205 [label="entropy = 0.0\nsamples = 1\nvalue = [[1, 0]\n[1, 0]\n[1, 0]\n...\n[1, 0]\n[1, 0]\n[1, 0]]"] ;
204 -> 205 ;
206 [label="entropy = 0.0\nsamples = 1\nvalue = [[1, 0]\n[1, 0]\n[1, 0]\n...\n[1, 0]\n[1, 0]\n[1, 0]]"] ;
204 -> 206 ;
207 [label="Leaf blade edges=teeth or entire <= 0.5\nentropy = 0.002\nsamples = 2\nvalue = [[2, 0]\n[2, 0]\n[2, 0]\n...\n[2, 0]\n[2, 0]\n[2, 0]]"] ;
203 -> 207 ;
208 [label="entropy = 0.0\nsamples = 1\nvalue = [[1, 0]\n[1, 0]\n[1, 0]\n...\n[1, 0]\n[1, 0]\n[1, 0]]"] ;
207 -> 208 ;
209 [label="entropy = 0.0\nsamples = 1\nvalue = [[1, 0]\n[1, 0]\n[1, 0]\n...\n[1, 0]\n[1, 0]\n[1, 0]]"] ;
207 -> 209 ;
210 [label="Stamen number=5 <= 0.5\nentropy = 0.009\nsamples = 135\nvalue = [[135, 0]\n[135, 0]\n[135, 0]\n...\n[135, 0]\n[134, 1]\n[135, 0]]"] ;
2 -> 210 ;
211 [label="Stamen number=13 <= 0.5\nentropy = 0.008\nsamples = 76\nvalue = [[76, 0]\n[76, 0]\n[76, 0]\n...\n[76, 0]\n[76, 0]\n[76, 0]]"] ;
210 -> 211 ;
212 [label="Stamen number=5 or 6 or 7 or 8 or 9 or 10 or 11 or 12 or 13 <= 0.5\nentropy = 0.007\nsamples = 36\nvalue = [[36, 0]\n[36, 0]\n[36, 0]\n...\n[36, 0]\n[36, 0]\n[36, 0]]"] ;
211 -> 212 ;
213 [label="Growth form=herb <= 0.5\nentropy = 0.006\nsamples = 19\nvalue = [[19, 0]\n[19, 0]\n[19, 0]\n...\n[19, 0]\n[19, 0]\n[19, 0]]"] ;
212 -> 213 ;
214 [label="Flower description=superior ovary <= 0.5\nentropy = 0.005\nsamples = 9\nvalue = [[9, 0]\n[9, 0]\n[9, 0]\n...\n[9, 0]\n[9, 0]\n[9, 0]]"] ;
213 -> 214 ;
215 [label="Stamen number=4 <= 0.5\nentropy = 0.004\nsamples = 5\nvalue = [[5, 0]\n[5, 0]\n[5, 0]\n...\n[5, 0]\n[5, 0]\n[5, 0]]"] ;
214 -> 215 ;
216 [label="Leaf type=compound or simple <= 0.5\nentropy = 0.002\nsamples = 2\nvalue = [[2, 0]\n[2, 0]\n[2, 0]\n...\n[2, 0]\n[2, 0]\n[2, 0]]"] ;
215 -> 216 ;
217 [label="entropy = 0.0\nsamples = 1\nvalue = [[1, 0]\n[1, 0]\n[1, 0]\n...\n[1, 0]\n[1, 0]\n[1, 0]]"] ;
216 -> 217 ;
218 [label="entropy = 0.0\nsamples = 1\nvalue = [[1, 0]\n[1, 0]\n[1, 0]\n...\n[1, 0]\n[1, 0]\n[1, 0]]"] ;
216 -> 218 ;
219 [label="Flower petal color=green to brown <= 0.5\nentropy = 0.003\nsamples = 3\nvalue = [[3, 0]\n[3, 0]\n[3, 0]\n...\n[3, 0]\n[3, 0]\n[3, 0]]"] ;
215 -> 219 ;
220 [label="Petal and sepal colors=white <= 0.5\nentropy = 0.002\nsamples = 2\nvalue = [[2, 0]\n[2, 0]\n[2, 0]\n...\n[2, 0]\n[2, 0]\n[2, 0]]"] ;
219 -> 220 ;
221 [label="entropy = 0.0\nsamples = 1\nvalue = [[1, 0]\n[1, 0]\n[1, 0]\n...\n[1, 0]\n[1, 0]\n[1, 0]]"] ;
220 -> 221 ;
222 [label="entropy = 0.0\nsamples = 1\nvalue = [[1, 0]\n[1, 0]\n[1, 0]\n...\n[1, 0]\n[1, 0]\n[1, 0]]"] ;
220 -> 222 ;
223 [label="entropy = 0.0\nsamples = 1\nvalue = [[1, 0]\n[1, 0]\n[1, 0]\n...\n[1, 0]\n[1, 0]\n[1, 0]]"] ;
219 -> 223 ;
224 [label="Petal and sepal colors=green to brown or white <= 0.5\nentropy = 0.003\nsamples = 4\nvalue = [[4, 0]\n[4, 0]\n[4, 0]\n...\n[4, 0]\n[4, 0]\n[4, 0]]"] ;
214 -> 224 ;
225 [label="Number of sepals, petals or tepals=5 <= 0.5\nentropy = 0.002\nsamples = 2\nvalue = [[2, 0]\n[2, 0]\n[2, 0]\n...\n[2, 0]\n[2, 0]\n[2, 0]]"] ;
224 -> 225 ;
226 [label="entropy = 0.0\nsamples = 1\nvalue = [[1, 0]\n[1, 0]\n[1, 0]\n...\n[1, 0]\n[1, 0]\n[1, 0]]"] ;
225 -> 226 ;
227 [label="entropy = 0.0\nsamples = 1\nvalue = [[1, 0]\n[1, 0]\n[1, 0]\n...\n[1, 0]\n[1, 0]\n[1, 0]]"] ;
225 -> 227 ;
228 [label="entropy = 0.002\nsamples = 2\nvalue = [[2, 0]\n[2, 0]\n[2, 0]\n...\n[2, 0]\n[2, 0]\n[2, 0]]"] ;
224 -> 228 ;
229 [label="Flower petal color=yellow <= 0.5\nentropy = 0.005\nsamples = 10\nvalue = [[10, 0]\n[10, 0]\n[10, 0]\n...\n[10, 0]\n[10, 0]\n[10, 0]]"] ;
213 -> 229 ;
230 [label="Fringed petal edges=? <= 0.5\nentropy = 0.004\nsamples = 5\nvalue = [[5, 0]\n[5, 0]\n[5, 0]\n...\n[5, 0]\n[5, 0]\n[5, 0]]"] ;
229 -> 230 ;
231 [label="Petal and sepal colors=white <= 0.5\nentropy = 0.003\nsamples = 3\nvalue = [[3, 0]\n[3, 0]\n[3, 0]\n...\n[3, 0]\n[3, 0]\n[3, 0]]"] ;
230 -> 231 ;
232 [label="entropy = 0.0\nsamples = 1\nvalue = [[1, 0]\n[1, 0]\n[1, 0]\n...\n[1, 0]\n[1, 0]\n[1, 0]]"] ;
231 -> 232 ;
233 [label="entropy = 0.002\nsamples = 2\nvalue = [[2, 0]\n[2, 0]\n[2, 0]\n...\n[2, 0]\n[2, 0]\n[2, 0]]"] ;
231 -> 233 ;
234 [label="Petal and sepal colors=green to brown or white <= 0.5\nentropy = 0.002\nsamples = 2\nvalue = [[2, 0]\n[2, 0]\n[2, 0]\n...\n[2, 0]\n[2, 0]\n[2, 0]]"] ;
230 -> 234 ;
235 [label="entropy = 0.0\nsamples = 1\nvalue = [[1, 0]\n[1, 0]\n[1, 0]\n...\n[1, 0]\n[1, 0]\n[1, 0]]"] ;
234 -> 235 ;
236 [label="entropy = 0.0\nsamples = 1\nvalue = [[1, 0]\n[1, 0]\n[1, 0]\n...\n[1, 0]\n[1, 0]\n[1, 0]]"] ;
234 -> 236 ;
237 [label="Number of sepals, petals or tepals=4 or 5 <= 0.5\nentropy = 0.004\nsamples = 5\nvalue = [[5, 0]\n[5, 0]\n[5, 0]\n...\n[5, 0]\n[5, 0]\n[5, 0]]"] ;
229 -> 237 ;
238 [label="Leaf blade edges=lobes <= 0.5\nentropy = 0.003\nsamples = 3\nvalue = [[3, 0]\n[3, 0]\n[3, 0]\n...\n[3, 0]\n[3, 0]\n[3, 0]]"] ;
237 -> 238 ;
239 [label="Leaf arrangement=alternate <= 0.5\nentropy = 0.002\nsamples = 2\nvalue = [[2, 0]\n[2, 0]\n[2, 0]\n...\n[2, 0]\n[2, 0]\n[2, 0]]"] ;
238 -> 239 ;
240 [label="entropy = 0.0\nsamples = 1\nvalue = [[1, 0]\n[1, 0]\n[1, 0]\n...\n[1, 0]\n[1, 0]\n[1, 0]]"] ;
239 -> 240 ;
241 [label="entropy = 0.0\nsamples = 1\nvalue = [[1, 0]\n[1, 0]\n[1, 0]\n...\n[1, 0]\n[1, 0]\n[1, 0]]"] ;
239 -> 241 ;
242 [label="entropy = 0.0\nsamples = 1\nvalue = [[1, 0]\n[1, 0]\n[1, 0]\n...\n[1, 0]\n[1, 0]\n[1, 0]]"] ;
238 -> 242 ;
243 [label="Leaf blade edges=teeth <= 0.5\nentropy = 0.002\nsamples = 2\nvalue = [[2, 0]\n[2, 0]\n[2, 0]\n...\n[2, 0]\n[2, 0]\n[2, 0]]"] ;
237 -> 243 ;
244 [label="entropy = 0.0\nsamples = 1\nvalue = [[1, 0]\n[1, 0]\n[1, 0]\n...\n[1, 0]\n[1, 0]\n[1, 0]]"] ;
243 -> 244 ;
245 [label="entropy = 0.0\nsamples = 1\nvalue = [[1, 0]\n[1, 0]\n[1, 0]\n...\n[1, 0]\n[1, 0]\n[1, 0]]"] ;
243 -> 245 ;
246 [label="Flower description=superior ovary & hypanthium <= 0.5\nentropy = 0.006\nsamples = 17\nvalue = [[17, 0]\n[17, 0]\n[17, 0]\n...\n[17, 0]\n[17, 0]\n[17, 0]]"] ;
212 -> 246 ;
247 [label="Leaf type=compound or simple <= 0.5\nentropy = 0.005\nsamples = 9\nvalue = [[9, 0]\n[9, 0]\n[9, 0]\n...\n[9, 0]\n[9, 0]\n[9, 0]]"] ;
246 -> 247 ;
248 [label="Leaf blade edges=teeth <= 0.5\nentropy = 0.002\nsamples = 2\nvalue = [[2, 0]\n[2, 0]\n[2, 0]\n...\n[2, 0]\n[2, 0]\n[2, 0]]"] ;
247 -> 248 ;
249 [label="entropy = 0.0\nsamples = 1\nvalue = [[1, 0]\n[1, 0]\n[1, 0]\n...\n[1, 0]\n[1, 0]\n[1, 0]]"] ;
248 -> 249 ;
250 [label="entropy = 0.0\nsamples = 1\nvalue = [[1, 0]\n[1, 0]\n[1, 0]\n...\n[1, 0]\n[1, 0]\n[1, 0]]"] ;
248 -> 250 ;
251 [label="Leaf blade edges=lobes <= 0.5\nentropy = 0.004\nsamples = 7\nvalue = [[7, 0]\n[7, 0]\n[7, 0]\n...\n[7, 0]\n[7, 0]\n[7, 0]]"] ;
247 -> 251 ;
252 [label="Leaf blade edges=lobes or teeth or entire <= 0.5\nentropy = 0.004\nsamples = 5\nvalue = [[5, 0]\n[5, 0]\n[5, 0]\n...\n[5, 0]\n[5, 0]\n[5, 0]]"] ;
251 -> 252 ;
253 [label="Leaf blade edges=teeth <= 0.5\nentropy = 0.003\nsamples = 3\nvalue = [[3, 0]\n[3, 0]\n[3, 0]\n...\n[3, 0]\n[3, 0]\n[3, 0]]"] ;
252 -> 253 ;
254 [label="entropy = 0.002\nsamples = 2\nvalue = [[2, 0]\n[2, 0]\n[2, 0]\n...\n[2, 0]\n[2, 0]\n[2, 0]]"] ;
253 -> 254 ;
255 [label="entropy = 0.0\nsamples = 1\nvalue = [[1, 0]\n[1, 0]\n[1, 0]\n...\n[1, 0]\n[1, 0]\n[1, 0]]"] ;
253 -> 255 ;
256 [label="entropy = 0.002\nsamples = 2\nvalue = [[2, 0]\n[2, 0]\n[2, 0]\n...\n[2, 0]\n[2, 0]\n[2, 0]]"] ;
252 -> 256 ;
257 [label="Leaf arrangement=alternate <= 0.5\nentropy = 0.002\nsamples = 2\nvalue = [[2, 0]\n[2, 0]\n[2, 0]\n...\n[2, 0]\n[2, 0]\n[2, 0]]"] ;
251 -> 257 ;
258 [label="entropy = 0.0\nsamples = 1\nvalue = [[1, 0]\n[1, 0]\n[1, 0]\n...\n[1, 0]\n[1, 0]\n[1, 0]]"] ;
257 -> 258 ;
259 [label="entropy = 0.0\nsamples = 1\nvalue = [[1, 0]\n[1, 0]\n[1, 0]\n...\n[1, 0]\n[1, 0]\n[1, 0]]"] ;
257 -> 259 ;
260 [label="Growth form=subshrub or vine or herb <= 0.5\nentropy = 0.005\nsamples = 8\nvalue = [[8, 0]\n[8, 0]\n[8, 0]\n...\n[8, 0]\n[8, 0]\n[8, 0]]"] ;
246 -> 260 ;
261 [label="entropy = 0.002\nsamples = 2\nvalue = [[2, 0]\n[2, 0]\n[2, 0]\n...\n[2, 0]\n[2, 0]\n[2, 0]]"] ;
260 -> 261 ;
262 [label="Calyx symmetry=radially symmetrical <= 0.5\nentropy = 0.004\nsamples = 6\nvalue = [[6, 0]\n[6, 0]\n[6, 0]\n...\n[6, 0]\n[6, 0]\n[6, 0]]"] ;
260 -> 262 ;
263 [label="entropy = 0.004\nsamples = 5\nvalue = [[5, 0]\n[5, 0]\n[5, 0]\n...\n[5, 0]\n[5, 0]\n[5, 0]]"] ;
262 -> 263 ;
264 [label="entropy = 0.0\nsamples = 1\nvalue = [[1, 0]\n[1, 0]\n[1, 0]\n...\n[1, 0]\n[1, 0]\n[1, 0]]"] ;
262 -> 264 ;
265 [label="Leaf type=compound <= 0.5\nentropy = 0.007\nsamples = 40\nvalue = [[40, 0]\n[40, 0]\n[40, 0]\n...\n[40, 0]\n[40, 0]\n[40, 0]]"] ;
211 -> 265 ;
266 [label="Leaf blade edges=lobes or teeth <= 0.5\nentropy = 0.006\nsamples = 15\nvalue = [[15, 0]\n[15, 0]\n[15, 0]\n...\n[15, 0]\n[15, 0]\n[15, 0]]"] ;
265 -> 266 ;
267 [label="Leaf blade edges=teeth <= 0.5\nentropy = 0.005\nsamples = 10\nvalue = [[10, 0]\n[10, 0]\n[10, 0]\n...\n[10, 0]\n[10, 0]\n[10, 0]]"] ;
266 -> 267 ;
268 [label="Fusion of sepals and petals=unfused or fused <= 0.5\nentropy = 0.004\nsamples = 5\nvalue = [[5, 0]\n[5, 0]\n[5, 0]\n...\n[5, 0]\n[5, 0]\n[5, 0]]"] ;
267 -> 268 ;
269 [label="Number of sepals, petals or tepals=5 <= 0.5\nentropy = 0.003\nsamples = 3\nvalue = [[3, 0]\n[3, 0]\n[3, 0]\n...\n[3, 0]\n[3, 0]\n[3, 0]]"] ;
268 -> 269 ;
270 [label="entropy = 0.0\nsamples = 1\nvalue = [[1, 0]\n[1, 0]\n[1, 0]\n...\n[1, 0]\n[1, 0]\n[1, 0]]"] ;
269 -> 270 ;
271 [label="Leaf blade edges=teeth or entire <= 0.5\nentropy = 0.002\nsamples = 2\nvalue = [[2, 0]\n[2, 0]\n[2, 0]\n...\n[2, 0]\n[2, 0]\n[2, 0]]"] ;
269 -> 271 ;
272 [label="entropy = 0.0\nsamples = 1\nvalue = [[1, 0]\n[1, 0]\n[1, 0]\n...\n[1, 0]\n[1, 0]\n[1, 0]]"] ;
271 -> 272 ;
273 [label="entropy = 0.0\nsamples = 1\nvalue = [[1, 0]\n[1, 0]\n[1, 0]\n...\n[1, 0]\n[1, 0]\n[1, 0]]"] ;
271 -> 273 ;
274 [label="Flower petal color=blue to purple or pink to red or white <= 0.5\nentropy = 0.002\nsamples = 2\nvalue = [[2, 0]\n[2, 0]\n[2, 0]\n...\n[2, 0]\n[2, 0]\n[2, 0]]"] ;
268 -> 274 ;
275 [label="entropy = 0.0\nsamples = 1\nvalue = [[1, 0]\n[1, 0]\n[1, 0]\n...\n[1, 0]\n[1, 0]\n[1, 0]]"] ;
274 -> 275 ;
276 [label="entropy = 0.0\nsamples = 1\nvalue = [[1, 0]\n[1, 0]\n[1, 0]\n...\n[1, 0]\n[1, 0]\n[1, 0]]"] ;
274 -> 276 ;
277 [label="Leaf type=simple <= 0.5\nentropy = 0.004\nsamples = 5\nvalue = [[5, 0]\n[5, 0]\n[5, 0]\n...\n[5, 0]\n[5, 0]\n[5, 0]]"] ;
267 -> 277 ;
278 [label="Flower description=superior ovary & hypanthium <= 0.5\nentropy = 0.002\nsamples = 2\nvalue = [[2, 0]\n[2, 0]\n[2, 0]\n...\n[2, 0]\n[2, 0]\n[2, 0]]"] ;
277 -> 278 ;
279 [label="entropy = 0.0\nsamples = 1\nvalue = [[1, 0]\n[1, 0]\n[1, 0]\n...\n[1, 0]\n[1, 0]\n[1, 0]]"] ;
278 -> 279 ;
280 [label="entropy = 0.0\nsamples = 1\nvalue = [[1, 0]\n[1, 0]\n[1, 0]\n...\n[1, 0]\n[1, 0]\n[1, 0]]"] ;
278 -> 280 ;
281 [label="Petal and sepal colors=orange or yellow <= 0.5\nentropy = 0.003\nsamples = 3\nvalue = [[3, 0]\n[3, 0]\n[3, 0]\n...\n[3, 0]\n[3, 0]\n[3, 0]]"] ;
277 -> 281 ;
282 [label="entropy = 0.002\nsamples = 2\nvalue = [[2, 0]\n[2, 0]\n[2, 0]\n...\n[2, 0]\n[2, 0]\n[2, 0]]"] ;
281 -> 282 ;
283 [label="entropy = 0.0\nsamples = 1\nvalue = [[1, 0]\n[1, 0]\n[1, 0]\n...\n[1, 0]\n[1, 0]\n[1, 0]]"] ;
281 -> 283 ;
284 [label="Petal and sepal colors=green to brown or white <= 0.5\nentropy = 0.004\nsamples = 5\nvalue = [[5, 0]\n[5, 0]\n[5, 0]\n...\n[5, 0]\n[5, 0]\n[5, 0]]"] ;
266 -> 284 ;
285 [label="Flower description=superior ovary <= 0.5\nentropy = 0.003\nsamples = 4\nvalue = [[4, 0]\n[4, 0]\n[4, 0]\n...\n[4, 0]\n[4, 0]\n[4, 0]]"] ;
284 -> 285 ;
286 [label="entropy = 0.0\nsamples = 1\nvalue = [[1, 0]\n[1, 0]\n[1, 0]\n...\n[1, 0]\n[1, 0]\n[1, 0]]"] ;
285 -> 286 ;
287 [label="entropy = 0.003\nsamples = 3\nvalue = [[3, 0]\n[3, 0]\n[3, 0]\n...\n[3, 0]\n[3, 0]\n[3, 0]]"] ;
285 -> 287 ;
288 [label="entropy = 0.0\nsamples = 1\nvalue = [[1, 0]\n[1, 0]\n[1, 0]\n...\n[1, 0]\n[1, 0]\n[1, 0]]"] ;
284 -> 288 ;
289 [label="Petal and sepal colors=yellow <= 0.5\nentropy = 0.006\nsamples = 25\nvalue = [[25, 0]\n[25, 0]\n[25, 0]\n...\n[25, 0]\n[25, 0]\n[25, 0]]"] ;
265 -> 289 ;
290 [label="Petal and sepal colors=white <= 0.5\nentropy = 0.005\nsamples = 9\nvalue = [[9, 0]\n[9, 0]\n[9, 0]\n...\n[9, 0]\n[9, 0]\n[9, 0]]"] ;
289 -> 290 ;
291 [label="Leaf blade edges=teeth <= 0.5\nentropy = 0.003\nsamples = 4\nvalue = [[4, 0]\n[4, 0]\n[4, 0]\n...\n[4, 0]\n[4, 0]\n[4, 0]]"] ;
290 -> 291 ;
292 [label="Petal and sepal colors=white or yellow <= 0.5\nentropy = 0.002\nsamples = 2\nvalue = [[2, 0]\n[2, 0]\n[2, 0]\n...\n[2, 0]\n[2, 0]\n[2, 0]]"] ;
291 -> 292 ;
293 [label="entropy = 0.0\nsamples = 1\nvalue = [[1, 0]\n[1, 0]\n[1, 0]\n...\n[1, 0]\n[1, 0]\n[1, 0]]"] ;
292 -> 293 ;
294 [label="entropy = 0.0\nsamples = 1\nvalue = [[1, 0]\n[1, 0]\n[1, 0]\n...\n[1, 0]\n[1, 0]\n[1, 0]]"] ;
292 -> 294 ;
295 [label="Petal and sepal colors=blue to purple or pink to red <= 0.5\nentropy = 0.002\nsamples = 2\nvalue = [[2, 0]\n[2, 0]\n[2, 0]\n...\n[2, 0]\n[2, 0]\n[2, 0]]"] ;
291 -> 295 ;
296 [label="entropy = 0.0\nsamples = 1\nvalue = [[1, 0]\n[1, 0]\n[1, 0]\n...\n[1, 0]\n[1, 0]\n[1, 0]]"] ;
295 -> 296 ;
297 [label="entropy = 0.0\nsamples = 1\nvalue = [[1, 0]\n[1, 0]\n[1, 0]\n...\n[1, 0]\n[1, 0]\n[1, 0]]"] ;
295 -> 297 ;
298 [label="Growth form=herb <= 0.5\nentropy = 0.004\nsamples = 5\nvalue = [[5, 0]\n[5, 0]\n[5, 0]\n...\n[5, 0]\n[5, 0]\n[5, 0]]"] ;
290 -> 298 ;
299 [label="Fruit type (general)=dry & doesn't split open <= 0.5\nentropy = 0.003\nsamples = 3\nvalue = [[3, 0]\n[3, 0]\n[3, 0]\n...\n[3, 0]\n[3, 0]\n[3, 0]]"] ;
298 -> 299 ;
300 [label="entropy = 0.0\nsamples = 1\nvalue = [[1, 0]\n[1, 0]\n[1, 0]\n...\n[1, 0]\n[1, 0]\n[1, 0]]"] ;
299 -> 300 ;
301 [label="Leaf blade edges=lobes or teeth <= 0.5\nentropy = 0.002\nsamples = 2\nvalue = [[2, 0]\n[2, 0]\n[2, 0]\n...\n[2, 0]\n[2, 0]\n[2, 0]]"] ;
299 -> 301 ;
302 [label="entropy = 0.0\nsamples = 1\nvalue = [[1, 0]\n[1, 0]\n[1, 0]\n...\n[1, 0]\n[1, 0]\n[1, 0]]"] ;
301 -> 302 ;
303 [label="entropy = 0.0\nsamples = 1\nvalue = [[1, 0]\n[1, 0]\n[1, 0]\n...\n[1, 0]\n[1, 0]\n[1, 0]]"] ;
301 -> 303 ;
304 [label="entropy = 0.002\nsamples = 2\nvalue = [[2, 0]\n[2, 0]\n[2, 0]\n...\n[2, 0]\n[2, 0]\n[2, 0]]"] ;
298 -> 304 ;
305 [label="Growth form=subshrub or vine or herb <= 0.5\nentropy = 0.006\nsamples = 16\nvalue = [[16, 0]\n[16, 0]\n[16, 0]\n...\n[16, 0]\n[16, 0]\n[16, 0]]"] ;
289 -> 305 ;
306 [label="Leaf blade edges=teeth <= 0.5\nentropy = 0.002\nsamples = 2\nvalue = [[2, 0]\n[2, 0]\n[2, 0]\n...\n[2, 0]\n[2, 0]\n[2, 0]]"] ;
305 -> 306 ;
307 [label="entropy = 0.0\nsamples = 1\nvalue = [[1, 0]\n[1, 0]\n[1, 0]\n...\n[1, 0]\n[1, 0]\n[1, 0]]"] ;
306 -> 307 ;
308 [label="entropy = 0.0\nsamples = 1\nvalue = [[1, 0]\n[1, 0]\n[1, 0]\n...\n[1, 0]\n[1, 0]\n[1, 0]]"] ;
306 -> 308 ;
309 [label="Flower description=superior ovary <= 0.5\nentropy = 0.005\nsamples = 14\nvalue = [[14, 0]\n[14, 0]\n[14, 0]\n...\n[14, 0]\n[14, 0]\n[14, 0]]"] ;
305 -> 309 ;
310 [label="Number of sepals, petals or tepals=5 <= 0.5\nentropy = 0.005\nsamples = 12\nvalue = [[12, 0]\n[12, 0]\n[12, 0]\n...\n[12, 0]\n[12, 0]\n[12, 0]]"] ;
309 -> 310 ;
311 [label="entropy = 0.0\nsamples = 1\nvalue = [[1, 0]\n[1, 0]\n[1, 0]\n...\n[1, 0]\n[1, 0]\n[1, 0]]"] ;
310 -> 311 ;
312 [label="Fruit type (general)=fleshy <= 0.5\nentropy = 0.005\nsamples = 11\nvalue = [[11, 0]\n[11, 0]\n[11, 0]\n...\n[11, 0]\n[11, 0]\n[11, 0]]"] ;
310 -> 312 ;
313 [label="entropy = 0.005\nsamples = 10\nvalue = [[10, 0]\n[10, 0]\n[10, 0]\n...\n[10, 0]\n[10, 0]\n[10, 0]]"] ;
312 -> 313 ;
314 [label="entropy = 0.0\nsamples = 1\nvalue = [[1, 0]\n[1, 0]\n[1, 0]\n...\n[1, 0]\n[1, 0]\n[1, 0]]"] ;
312 -> 314 ;
315 [label="entropy = 0.002\nsamples = 2\nvalue = [[2, 0]\n[2, 0]\n[2, 0]\n...\n[2, 0]\n[2, 0]\n[2, 0]]"] ;
309 -> 315 ;
316 [label="Flower petal color=white <= 0.5\nentropy = 0.008\nsamples = 59\nvalue = [[59, 0]\n[59, 0]\n[59, 0]\n...\n[59, 0]\n[58, 1]\n[59, 0]]"] ;
210 -> 316 ;
317 [label="Leaf type=compound <= 0.5\nentropy = 0.006\nsamples = 27\nvalue = [[27, 0]\n[27, 0]\n[27, 0]\n...\n[27, 0]\n[26, 1]\n[27, 0]]"] ;
316 -> 317 ;
318 [label="Leaf type=compound or simple <= 0.5\nentropy = 0.005\nsamples = 13\nvalue = [[13, 0]\n[13, 0]\n[13, 0]\n...\n[13, 0]\n[12, 1]\n[13, 0]]"] ;
317 -> 318 ;
319 [label="Flower petal color=blue to purple <= 0.5\nentropy = 0.004\nsamples = 6\nvalue = [[6, 0]\n[6, 0]\n[6, 0]\n...\n[6, 0]\n[6, 0]\n[6, 0]]"] ;
318 -> 319 ;
320 [label="Leaf blade edges=teeth <= 0.5\nentropy = 0.003\nsamples = 4\nvalue = [[4, 0]\n[4, 0]\n[4, 0]\n...\n[4, 0]\n[4, 0]\n[4, 0]]"] ;
319 -> 320 ;
321 [label="Petal and sepal colors=blue to purple or pink to red or white <= 0.5\nentropy = 0.002\nsamples = 2\nvalue = [[2, 0]\n[2, 0]\n[2, 0]\n...\n[2, 0]\n[2, 0]\n[2, 0]]"] ;
320 -> 321 ;
322 [label="entropy = 0.0\nsamples = 1\nvalue = [[1, 0]\n[1, 0]\n[1, 0]\n...\n[1, 0]\n[1, 0]\n[1, 0]]"] ;
321 -> 322 ;
323 [label="entropy = 0.0\nsamples = 1\nvalue = [[1, 0]\n[1, 0]\n[1, 0]\n...\n[1, 0]\n[1, 0]\n[1, 0]]"] ;
321 -> 323 ;
324 [label="Fringed petal edges=fringed or not fringed <= 0.5\nentropy = 0.002\nsamples = 2\nvalue = [[2, 0]\n[2, 0]\n[2, 0]\n...\n[2, 0]\n[2, 0]\n[2, 0]]"] ;
320 -> 324 ;
325 [label="entropy = 0.0\nsamples = 1\nvalue = [[1, 0]\n[1, 0]\n[1, 0]\n...\n[1, 0]\n[1, 0]\n[1, 0]]"] ;
324 -> 325 ;
326 [label="entropy = 0.0\nsamples = 1\nvalue = [[1, 0]\n[1, 0]\n[1, 0]\n...\n[1, 0]\n[1, 0]\n[1, 0]]"] ;
324 -> 326 ;
327 [label="Leaf blade edges=lobes or teeth or entire <= 0.5\nentropy = 0.002\nsamples = 2\nvalue = [[2, 0]\n[2, 0]\n[2, 0]\n...\n[2, 0]\n[2, 0]\n[2, 0]]"] ;
319 -> 327 ;
328 [label="entropy = 0.0\nsamples = 1\nvalue = [[1, 0]\n[1, 0]\n[1, 0]\n...\n[1, 0]\n[1, 0]\n[1, 0]]"] ;
327 -> 328 ;
329 [label="entropy = 0.0\nsamples = 1\nvalue = [[1, 0]\n[1, 0]\n[1, 0]\n...\n[1, 0]\n[1, 0]\n[1, 0]]"] ;
327 -> 329 ;
330 [label="Leaf blade edges=lobes or teeth <= 0.5\nentropy = 0.004\nsamples = 7\nvalue = [[7, 0]\n[7, 0]\n[7, 0]\n...\n[7, 0]\n[6, 1]\n[7, 0]]"] ;
318 -> 330 ;
331 [label="Flower symmetry=radially symmetrical <= 0.5\nentropy = 0.003\nsamples = 4\nvalue = [[4, 0]\n[4, 0]\n[4, 0]\n...\n[4, 0]\n[3, 1]\n[4, 0]]"] ;
330 -> 331 ;
332 [label="Flower petal color=blue to purple or pink to red or white <= 0.5\nentropy = 0.002\nsamples = 2\nvalue = [[2, 0]\n[2, 0]\n[2, 0]\n...\n[2, 0]\n[2, 0]\n[2, 0]]"] ;
331 -> 332 ;
333 [label="entropy = 0.0\nsamples = 1\nvalue = [[1, 0]\n[1, 0]\n[1, 0]\n...\n[1, 0]\n[1, 0]\n[1, 0]]"] ;
332 -> 333 ;
334 [label="entropy = 0.0\nsamples = 1\nvalue = [[1, 0]\n[1, 0]\n[1, 0]\n...\n[1, 0]\n[1, 0]\n[1, 0]]"] ;
332 -> 334 ;
335 [label="Calyx symmetry=radially symmetrical <= 0.5\nentropy = 0.002\nsamples = 2\nvalue = [[2, 0]\n[2, 0]\n[2, 0]\n...\n[2, 0]\n[1, 1]\n[2, 0]]"] ;
331 -> 335 ;
336 [label="entropy = 0.0\nsamples = 1\nvalue = [[1, 0]\n[1, 0]\n[1, 0]\n...\n[1, 0]\n[1, 0]\n[1, 0]]"] ;
335 -> 336 ;
337 [label="entropy = 0.0\nsamples = 1\nvalue = [[1, 0]\n[1, 0]\n[1, 0]\n...\n[1, 0]\n[0, 1]\n[1, 0]]"] ;
335 -> 337 ;
338 [label="Flower petal color=pink to red or white <= 0.5\nentropy = 0.003\nsamples = 3\nvalue = [[3, 0]\n[3, 0]\n[3, 0]\n...\n[3, 0]\n[3, 0]\n[3, 0]]"] ;
330 -> 338 ;
339 [label="Flower petal color=green to brown or yellow <= 0.5\nentropy = 0.002\nsamples = 2\nvalue = [[2, 0]\n[2, 0]\n[2, 0]\n...\n[2, 0]\n[2, 0]\n[2, 0]]"] ;
338 -> 339 ;
340 [label="entropy = 0.0\nsamples = 1\nvalue = [[1, 0]\n[1, 0]\n[1, 0]\n...\n[1, 0]\n[1, 0]\n[1, 0]]"] ;
339 -> 340 ;
341 [label="entropy = 0.0\nsamples = 1\nvalue = [[1, 0]\n[1, 0]\n[1, 0]\n...\n[1, 0]\n[1, 0]\n[1, 0]]"] ;
339 -> 341 ;
342 [label="entropy = 0.0\nsamples = 1\nvalue = [[1, 0]\n[1, 0]\n[1, 0]\n...\n[1, 0]\n[1, 0]\n[1, 0]]"] ;
338 -> 342 ;
343 [label="Leaf blade edges=lobes or teeth <= 0.5\nentropy = 0.005\nsamples = 14\nvalue = [[14, 0]\n[14, 0]\n[14, 0]\n...\n[14, 0]\n[14, 0]\n[14, 0]]"] ;
317 -> 343 ;
344 [label="Calyx symmetry=radially symmetrical or bilaterally symmetrical <= 0.5\nentropy = 0.005\nsamples = 8\nvalue = [[8, 0]\n[8, 0]\n[8, 0]\n...\n[8, 0]\n[8, 0]\n[8, 0]]"] ;
343 -> 344 ;
345 [label="Calyx symmetry=radially symmetrical <= 0.5\nentropy = 0.003\nsamples = 4\nvalue = [[4, 0]\n[4, 0]\n[4, 0]\n...\n[4, 0]\n[4, 0]\n[4, 0]]"] ;
344 -> 345 ;
346 [label="Petal and sepal colors=yellow <= 0.5\nentropy = 0.002\nsamples = 2\nvalue = [[2, 0]\n[2, 0]\n[2, 0]\n...\n[2, 0]\n[2, 0]\n[2, 0]]"] ;
345 -> 346 ;
347 [label="entropy = 0.0\nsamples = 1\nvalue = [[1, 0]\n[1, 0]\n[1, 0]\n...\n[1, 0]\n[1, 0]\n[1, 0]]"] ;
346 -> 347 ;
348 [label="entropy = 0.0\nsamples = 1\nvalue = [[1, 0]\n[1, 0]\n[1, 0]\n...\n[1, 0]\n[1, 0]\n[1, 0]]"] ;
346 -> 348 ;
349 [label="Petal and sepal colors=pink to red or white <= 0.5\nentropy = 0.002\nsamples = 2\nvalue = [[2, 0]\n[2, 0]\n[2, 0]\n...\n[2, 0]\n[2, 0]\n[2, 0]]"] ;
345 -> 349 ;
350 [label="entropy = 0.0\nsamples = 1\nvalue = [[1, 0]\n[1, 0]\n[1, 0]\n...\n[1, 0]\n[1, 0]\n[1, 0]]"] ;
349 -> 350 ;
351 [label="entropy = 0.0\nsamples = 1\nvalue = [[1, 0]\n[1, 0]\n[1, 0]\n...\n[1, 0]\n[1, 0]\n[1, 0]]"] ;
349 -> 351 ;
352 [label="Petal and sepal colors=green to brown or white <= 0.5\nentropy = 0.003\nsamples = 4\nvalue = [[4, 0]\n[4, 0]\n[4, 0]\n...\n[4, 0]\n[4, 0]\n[4, 0]]"] ;
344 -> 352 ;
353 [label="Leaf blade edges=lobes <= 0.5\nentropy = 0.002\nsamples = 2\nvalue = [[2, 0]\n[2, 0]\n[2, 0]\n...\n[2, 0]\n[2, 0]\n[2, 0]]"] ;
352 -> 353 ;
354 [label="entropy = 0.0\nsamples = 1\nvalue = [[1, 0]\n[1, 0]\n[1, 0]\n...\n[1, 0]\n[1, 0]\n[1, 0]]"] ;
353 -> 354 ;
355 [label="entropy = 0.0\nsamples = 1\nvalue = [[1, 0]\n[1, 0]\n[1, 0]\n...\n[1, 0]\n[1, 0]\n[1, 0]]"] ;
353 -> 355 ;
356 [label="Growth form=subshrub or herb <= 0.5\nentropy = 0.002\nsamples = 2\nvalue = [[2, 0]\n[2, 0]\n[2, 0]\n...\n[2, 0]\n[2, 0]\n[2, 0]]"] ;
352 -> 356 ;
357 [label="entropy = 0.0\nsamples = 1\nvalue = [[1, 0]\n[1, 0]\n[1, 0]\n...\n[1, 0]\n[1, 0]\n[1, 0]]"] ;
356 -> 357 ;
358 [label="entropy = 0.0\nsamples = 1\nvalue = [[1, 0]\n[1, 0]\n[1, 0]\n...\n[1, 0]\n[1, 0]\n[1, 0]]"] ;
356 -> 358 ;
359 [label="Flower petal color=green to brown or white <= 0.5\nentropy = 0.004\nsamples = 6\nvalue = [[6, 0]\n[6, 0]\n[6, 0]\n...\n[6, 0]\n[6, 0]\n[6, 0]]"] ;
343 -> 359 ;
360 [label="Flower petal color=blue to purple or pink to red or white <= 0.5\nentropy = 0.003\nsamples = 3\nvalue = [[3, 0]\n[3, 0]\n[3, 0]\n...\n[3, 0]\n[3, 0]\n[3, 0]]"] ;
359 -> 360 ;
361 [label="Calyx symmetry=? <= 0.5\nentropy = 0.002\nsamples = 2\nvalue = [[2, 0]\n[2, 0]\n[2, 0]\n...\n[2, 0]\n[2, 0]\n[2, 0]]"] ;
360 -> 361 ;
362 [label="entropy = 0.0\nsamples = 1\nvalue = [[1, 0]\n[1, 0]\n[1, 0]\n...\n[1, 0]\n[1, 0]\n[1, 0]]"] ;
361 -> 362 ;
363 [label="entropy = 0.0\nsamples = 1\nvalue = [[1, 0]\n[1, 0]\n[1, 0]\n...\n[1, 0]\n[1, 0]\n[1, 0]]"] ;
361 -> 363 ;
364 [label="entropy = 0.0\nsamples = 1\nvalue = [[1, 0]\n[1, 0]\n[1, 0]\n...\n[1, 0]\n[1, 0]\n[1, 0]]"] ;
360 -> 364 ;
365 [label="Calyx symmetry=radially symmetrical <= 0.5\nentropy = 0.003\nsamples = 3\nvalue = [[3, 0]\n[3, 0]\n[3, 0]\n...\n[3, 0]\n[3, 0]\n[3, 0]]"] ;
359 -> 365 ;
366 [label="entropy = 0.002\nsamples = 2\nvalue = [[2, 0]\n[2, 0]\n[2, 0]\n...\n[2, 0]\n[2, 0]\n[2, 0]]"] ;
365 -> 366 ;
367 [label="entropy = 0.0\nsamples = 1\nvalue = [[1, 0]\n[1, 0]\n[1, 0]\n...\n[1, 0]\n[1, 0]\n[1, 0]]"] ;
365 -> 367 ;
368 [label="Calyx symmetry=? <= 0.5\nentropy = 0.007\nsamples = 32\nvalue = [[32, 0]\n[32, 0]\n[32, 0]\n...\n[32, 0]\n[32, 0]\n[32, 0]]"] ;
316 -> 368 ;
369 [label="Calyx symmetry=radially symmetrical <= 0.5\nentropy = 0.006\nsamples = 16\nvalue = [[16, 0]\n[16, 0]\n[16, 0]\n...\n[16, 0]\n[16, 0]\n[16, 0]]"] ;
368 -> 369 ;
370 [label="Flower symmetry=radially symmetrical or bilaterally symmetrical <= 0.5\nentropy = 0.005\nsamples = 10\nvalue = [[10, 0]\n[10, 0]\n[10, 0]\n...\n[10, 0]\n[10, 0]\n[10, 0]]"] ;
369 -> 370 ;
371 [label="Leaf type=simple <= 0.5\nentropy = 0.004\nsamples = 7\nvalue = [[7, 0]\n[7, 0]\n[7, 0]\n...\n[7, 0]\n[7, 0]\n[7, 0]]"] ;
370 -> 371 ;
372 [label="Leaf blade edges=teeth <= 0.5\nentropy = 0.003\nsamples = 4\nvalue = [[4, 0]\n[4, 0]\n[4, 0]\n...\n[4, 0]\n[4, 0]\n[4, 0]]"] ;
371 -> 372 ;
373 [label="Bulbils=with bulbils <= 0.5\nentropy = 0.002\nsamples = 2\nvalue = [[2, 0]\n[2, 0]\n[2, 0]\n...\n[2, 0]\n[2, 0]\n[2, 0]]"] ;
372 -> 373 ;
374 [label="entropy = 0.0\nsamples = 1\nvalue = [[1, 0]\n[1, 0]\n[1, 0]\n...\n[1, 0]\n[1, 0]\n[1, 0]]"] ;
373 -> 374 ;
375 [label="entropy = 0.0\nsamples = 1\nvalue = [[1, 0]\n[1, 0]\n[1, 0]\n...\n[1, 0]\n[1, 0]\n[1, 0]]"] ;
373 -> 375 ;
376 [label="Inflorescence type=one flower or branched umbel or corymb or raceme <= 0.5\nentropy = 0.002\nsamples = 2\nvalue = [[2, 0]\n[2, 0]\n[2, 0]\n...\n[2, 0]\n[2, 0]\n[2, 0]]"] ;
372 -> 376 ;
377 [label="entropy = 0.0\nsamples = 1\nvalue = [[1, 0]\n[1, 0]\n[1, 0]\n...\n[1, 0]\n[1, 0]\n[1, 0]]"] ;
376 -> 377 ;
378 [label="entropy = 0.0\nsamples = 1\nvalue = [[1, 0]\n[1, 0]\n[1, 0]\n...\n[1, 0]\n[1, 0]\n[1, 0]]"] ;
376 -> 378 ;
379 [label="entropy = 0.003\nsamples = 3\nvalue = [[3, 0]\n[3, 0]\n[3, 0]\n...\n[3, 0]\n[3, 0]\n[3, 0]]"] ;
371 -> 379 ;
380 [label="Leaf blade edges=lobes or entire <= 0.5\nentropy = 0.003\nsamples = 3\nvalue = [[3, 0]\n[3, 0]\n[3, 0]\n...\n[3, 0]\n[3, 0]\n[3, 0]]"] ;
370 -> 380 ;
381 [label="entropy = 0.002\nsamples = 2\nvalue = [[2, 0]\n[2, 0]\n[2, 0]\n...\n[2, 0]\n[2, 0]\n[2, 0]]"] ;
380 -> 381 ;
382 [label="entropy = 0.0\nsamples = 1\nvalue = [[1, 0]\n[1, 0]\n[1, 0]\n...\n[1, 0]\n[1, 0]\n[1, 0]]"] ;
380 -> 382 ;
383 [label="Leaf blade edges=lobes or teeth <= 0.5\nentropy = 0.004\nsamples = 6\nvalue = [[6, 0]\n[6, 0]\n[6, 0]\n...\n[6, 0]\n[6, 0]\n[6, 0]]"] ;
369 -> 383 ;
384 [label="Flower symmetry=radially symmetrical <= 0.5\nentropy = 0.003\nsamples = 3\nvalue = [[3, 0]\n[3, 0]\n[3, 0]\n...\n[3, 0]\n[3, 0]\n[3, 0]]"] ;
383 -> 384 ;
385 [label="entropy = 0.002\nsamples = 2\nvalue = [[2, 0]\n[2, 0]\n[2, 0]\n...\n[2, 0]\n[2, 0]\n[2, 0]]"] ;
384 -> 385 ;
386 [label="entropy = 0.0\nsamples = 1\nvalue = [[1, 0]\n[1, 0]\n[1, 0]\n...\n[1, 0]\n[1, 0]\n[1, 0]]"] ;
384 -> 386 ;
387 [label="Leaf type=compound <= 0.5\nentropy = 0.003\nsamples = 3\nvalue = [[3, 0]\n[3, 0]\n[3, 0]\n...\n[3, 0]\n[3, 0]\n[3, 0]]"] ;
383 -> 387 ;
388 [label="Leaf type=simple <= 0.5\nentropy = 0.002\nsamples = 2\nvalue = [[2, 0]\n[2, 0]\n[2, 0]\n...\n[2, 0]\n[2, 0]\n[2, 0]]"] ;
387 -> 388 ;
389 [label="entropy = 0.0\nsamples = 1\nvalue = [[1, 0]\n[1, 0]\n[1, 0]\n...\n[1, 0]\n[1, 0]\n[1, 0]]"] ;
388 -> 389 ;
390 [label="entropy = 0.0\nsamples = 1\nvalue = [[1, 0]\n[1, 0]\n[1, 0]\n...\n[1, 0]\n[1, 0]\n[1, 0]]"] ;
388 -> 390 ;
391 [label="entropy = 0.0\nsamples = 1\nvalue = [[1, 0]\n[1, 0]\n[1, 0]\n...\n[1, 0]\n[1, 0]\n[1, 0]]"] ;
387 -> 391 ;
392 [label="Flower symmetry=radially symmetrical <= 0.5\nentropy = 0.006\nsamples = 16\nvalue = [[16, 0]\n[16, 0]\n[16, 0]\n...\n[16, 0]\n[16, 0]\n[16, 0]]"] ;
368 -> 392 ;
393 [label="Leaf blade edges=lobes <= 0.5\nentropy = 0.004\nsamples = 7\nvalue = [[7, 0]\n[7, 0]\n[7, 0]\n...\n[7, 0]\n[7, 0]\n[7, 0]]"] ;
392 -> 393 ;
394 [label="Leaf blade edges=lobes or entire <= 0.5\nentropy = 0.003\nsamples = 3\nvalue = [[3, 0]\n[3, 0]\n[3, 0]\n...\n[3, 0]\n[3, 0]\n[3, 0]]"] ;
393 -> 394 ;
395 [label="Leaf blade edges=teeth <= 0.5\nentropy = 0.002\nsamples = 2\nvalue = [[2, 0]\n[2, 0]\n[2, 0]\n...\n[2, 0]\n[2, 0]\n[2, 0]]"] ;
394 -> 395 ;
396 [label="entropy = 0.0\nsamples = 1\nvalue = [[1, 0]\n[1, 0]\n[1, 0]\n...\n[1, 0]\n[1, 0]\n[1, 0]]"] ;
395 -> 396 ;
397 [label="entropy = 0.0\nsamples = 1\nvalue = [[1, 0]\n[1, 0]\n[1, 0]\n...\n[1, 0]\n[1, 0]\n[1, 0]]"] ;
395 -> 397 ;
398 [label="entropy = 0.0\nsamples = 1\nvalue = [[1, 0]\n[1, 0]\n[1, 0]\n...\n[1, 0]\n[1, 0]\n[1, 0]]"] ;
394 -> 398 ;
399 [label="entropy = 0.003\nsamples = 4\nvalue = [[4, 0]\n[4, 0]\n[4, 0]\n...\n[4, 0]\n[4, 0]\n[4, 0]]"] ;
393 -> 399 ;
400 [label="Leaf type=simple <= 0.5\nentropy = 0.005\nsamples = 9\nvalue = [[9, 0]\n[9, 0]\n[9, 0]\n...\n[9, 0]\n[9, 0]\n[9, 0]]"] ;
392 -> 400 ;
401 [label="Leaf blade edges=lobes or teeth <= 0.5\nentropy = 0.004\nsamples = 5\nvalue = [[5, 0]\n[5, 0]\n[5, 0]\n...\n[5, 0]\n[5, 0]\n[5, 0]]"] ;
400 -> 401 ;
402 [label="entropy = 0.002\nsamples = 2\nvalue = [[2, 0]\n[2, 0]\n[2, 0]\n...\n[2, 0]\n[2, 0]\n[2, 0]]"] ;
401 -> 402 ;
403 [label="entropy = 0.003\nsamples = 3\nvalue = [[3, 0]\n[3, 0]\n[3, 0]\n...\n[3, 0]\n[3, 0]\n[3, 0]]"] ;
401 -> 403 ;
404 [label="Leaf arrangement=basal <= 0.5\nentropy = 0.003\nsamples = 4\nvalue = [[4, 0]\n[4, 0]\n[4, 0]\n...\n[4, 0]\n[4, 0]\n[4, 0]]"] ;
400 -> 404 ;
405 [label="entropy = 0.003\nsamples = 3\nvalue = [[3, 0]\n[3, 0]\n[3, 0]\n...\n[3, 0]\n[3, 0]\n[3, 0]]"] ;
404 -> 405 ;
406 [label="entropy = 0.0\nsamples = 1\nvalue = [[1, 0]\n[1, 0]\n[1, 0]\n...\n[1, 0]\n[1, 0]\n[1, 0]]"] ;
404 -> 406 ;
407 [label="Growth form=herb <= 0.5\nentropy = 0.01\nsamples = 227\nvalue = [[227, 0]\n[226, 1]\n[227, 0]\n...\n[227, 0]\n[227, 0]\n[227, 0]]"] ;
1 -> 407 ;
408 [label="Leaf blade edges=entire <= 0.5\nentropy = 0.009\nsamples = 117\nvalue = [[117, 0]\n[116, 1]\n[117, 0]\n...\n[117, 0]\n[117, 0]\n[117, 0]]"] ;
407 -> 408 ;
409 [label="Fruit type (general)=fleshy <= 0.5\nentropy = 0.008\nsamples = 58\nvalue = [[58, 0]\n[57, 1]\n[58, 0]\n...\n[58, 0]\n[58, 0]\n[58, 0]]"] ;
408 -> 409 ;
410 [label="Stamen number=5 <= 0.5\nentropy = 0.007\nsamples = 29\nvalue = [[29, 0]\n[28, 1]\n[29, 0]\n...\n[29, 0]\n[29, 0]\n[29, 0]]"] ;
409 -> 410 ;
411 [label="Stamen number=0 or 5 <= 0.5\nentropy = 0.005\nsamples = 14\nvalue = [[14, 0]\n[13, 1]\n[14, 0]\n...\n[14, 0]\n[14, 0]\n[14, 0]]"] ;
410 -> 411 ;
412 [label="Number of sepals, petals or tepals=5 <= 0.5\nentropy = 0.005\nsamples = 8\nvalue = [[8, 0]\n[7, 1]\n[8, 0]\n...\n[8, 0]\n[8, 0]\n[8, 0]]"] ;
411 -> 412 ;
413 [label="Number of sepals, petals or tepals=3 <= 0.5\nentropy = 0.003\nsamples = 4\nvalue = [[4, 0]\n[4, 0]\n[4, 0]\n...\n[4, 0]\n[4, 0]\n[4, 0]]"] ;
412 -> 413 ;
414 [label="Stamen number=1 or 3 <= 0.5\nentropy = 0.002\nsamples = 2\nvalue = [[2, 0]\n[2, 0]\n[2, 0]\n...\n[2, 0]\n[2, 0]\n[2, 0]]"] ;
413 -> 414 ;
415 [label="entropy = 0.0\nsamples = 1\nvalue = [[1, 0]\n[1, 0]\n[1, 0]\n...\n[1, 0]\n[1, 0]\n[1, 0]]"] ;
414 -> 415 ;
416 [label="entropy = 0.0\nsamples = 1\nvalue = [[1, 0]\n[1, 0]\n[1, 0]\n...\n[1, 0]\n[1, 0]\n[1, 0]]"] ;
414 -> 416 ;
417 [label="Leaf blade edges=teeth <= 0.5\nentropy = 0.002\nsamples = 2\nvalue = [[2, 0]\n[2, 0]\n[2, 0]\n...\n[2, 0]\n[2, 0]\n[2, 0]]"] ;
413 -> 417 ;
418 [label="entropy = 0.0\nsamples = 1\nvalue = [[1, 0]\n[1, 0]\n[1, 0]\n...\n[1, 0]\n[1, 0]\n[1, 0]]"] ;
417 -> 418 ;
419 [label="entropy = 0.0\nsamples = 1\nvalue = [[1, 0]\n[1, 0]\n[1, 0]\n...\n[1, 0]\n[1, 0]\n[1, 0]]"] ;
417 -> 419 ;
420 [label="Leaf blade edges=teeth or entire <= 0.5\nentropy = 0.003\nsamples = 4\nvalue = [[4, 0]\n[3, 1]\n[4, 0]\n...\n[4, 0]\n[4, 0]\n[4, 0]]"] ;
412 -> 420 ;
421 [label="Flower petal color=white or yellow <= 0.5\nentropy = 0.002\nsamples = 2\nvalue = [[2, 0]\n[1, 1]\n[2, 0]\n...\n[2, 0]\n[2, 0]\n[2, 0]]"] ;
420 -> 421 ;
422 [label="entropy = 0.0\nsamples = 1\nvalue = [[1, 0]\n[0, 1]\n[1, 0]\n...\n[1, 0]\n[1, 0]\n[1, 0]]"] ;
421 -> 422 ;
423 [label="entropy = 0.0\nsamples = 1\nvalue = [[1, 0]\n[1, 0]\n[1, 0]\n...\n[1, 0]\n[1, 0]\n[1, 0]]"] ;
421 -> 423 ;
424 [label="Stamen number=1 <= 0.5\nentropy = 0.002\nsamples = 2\nvalue = [[2, 0]\n[2, 0]\n[2, 0]\n...\n[2, 0]\n[2, 0]\n[2, 0]]"] ;
420 -> 424 ;
425 [label="entropy = 0.0\nsamples = 1\nvalue = [[1, 0]\n[1, 0]\n[1, 0]\n...\n[1, 0]\n[1, 0]\n[1, 0]]"] ;
424 -> 425 ;
426 [label="entropy = 0.0\nsamples = 1\nvalue = [[1, 0]\n[1, 0]\n[1, 0]\n...\n[1, 0]\n[1, 0]\n[1, 0]]"] ;
424 -> 426 ;
427 [label="Number of sepals, petals or tepals=1 or 2 or 3 or 4 or 5 or 0 or 6 or 7 <= 0.5\nentropy = 0.004\nsamples = 6\nvalue = [[6, 0]\n[6, 0]\n[6, 0]\n...\n[6, 0]\n[6, 0]\n[6, 0]]"] ;
411 -> 427 ;
428 [label="Number of sepals, petals or tepals=5 or 0 <= 0.5\nentropy = 0.003\nsamples = 3\nvalue = [[3, 0]\n[3, 0]\n[3, 0]\n...\n[3, 0]\n[3, 0]\n[3, 0]]"] ;
427 -> 428 ;
429 [label="entropy = 0.0\nsamples = 1\nvalue = [[1, 0]\n[1, 0]\n[1, 0]\n...\n[1, 0]\n[1, 0]\n[1, 0]]"] ;
428 -> 429 ;
430 [label="entropy = 0.002\nsamples = 2\nvalue = [[2, 0]\n[2, 0]\n[2, 0]\n...\n[2, 0]\n[2, 0]\n[2, 0]]"] ;
428 -> 430 ;
431 [label="Leaf arrangement=alternate <= 0.5\nentropy = 0.003\nsamples = 3\nvalue = [[3, 0]\n[3, 0]\n[3, 0]\n...\n[3, 0]\n[3, 0]\n[3, 0]]"] ;
427 -> 431 ;
432 [label="entropy = 0.002\nsamples = 2\nvalue = [[2, 0]\n[2, 0]\n[2, 0]\n...\n[2, 0]\n[2, 0]\n[2, 0]]"] ;
431 -> 432 ;
433 [label="entropy = 0.0\nsamples = 1\nvalue = [[1, 0]\n[1, 0]\n[1, 0]\n...\n[1, 0]\n[1, 0]\n[1, 0]]"] ;
431 -> 433 ;
434 [label="Leaf blade edges=teeth or entire <= 0.5\nentropy = 0.006\nsamples = 15\nvalue = [[15, 0]\n[15, 0]\n[15, 0]\n...\n[15, 0]\n[15, 0]\n[15, 0]]"] ;
410 -> 434 ;
435 [label="Leaf blade edges=teeth <= 0.5\nentropy = 0.004\nsamples = 6\nvalue = [[6, 0]\n[6, 0]\n[6, 0]\n...\n[6, 0]\n[6, 0]\n[6, 0]]"] ;
434 -> 435 ;
436 [label="Number of sepals, petals or tepals=5 <= 0.5\nentropy = 0.002\nsamples = 2\nvalue = [[2, 0]\n[2, 0]\n[2, 0]\n...\n[2, 0]\n[2, 0]\n[2, 0]]"] ;
435 -> 436 ;
437 [label="entropy = 0.0\nsamples = 1\nvalue = [[1, 0]\n[1, 0]\n[1, 0]\n...\n[1, 0]\n[1, 0]\n[1, 0]]"] ;
436 -> 437 ;
438 [label="entropy = 0.0\nsamples = 1\nvalue = [[1, 0]\n[1, 0]\n[1, 0]\n...\n[1, 0]\n[1, 0]\n[1, 0]]"] ;
436 -> 438 ;
439 [label="Number of sepals, petals or tepals=5 or 0 <= 0.5\nentropy = 0.003\nsamples = 4\nvalue = [[4, 0]\n[4, 0]\n[4, 0]\n...\n[4, 0]\n[4, 0]\n[4, 0]]"] ;
435 -> 439 ;
440 [label="Flower petal color=blue to purple or pink to red <= 0.5\nentropy = 0.003\nsamples = 3\nvalue = [[3, 0]\n[3, 0]\n[3, 0]\n...\n[3, 0]\n[3, 0]\n[3, 0]]"] ;
439 -> 440 ;
441 [label="entropy = 0.002\nsamples = 2\nvalue = [[2, 0]\n[2, 0]\n[2, 0]\n...\n[2, 0]\n[2, 0]\n[2, 0]]"] ;
440 -> 441 ;
442 [label="entropy = 0.0\nsamples = 1\nvalue = [[1, 0]\n[1, 0]\n[1, 0]\n...\n[1, 0]\n[1, 0]\n[1, 0]]"] ;
440 -> 442 ;
443 [label="entropy = 0.0\nsamples = 1\nvalue = [[1, 0]\n[1, 0]\n[1, 0]\n...\n[1, 0]\n[1, 0]\n[1, 0]]"] ;
439 -> 443 ;
444 [label="Petal and sepal colors=green to brown <= 0.5\nentropy = 0.005\nsamples = 9\nvalue = [[9, 0]\n[9, 0]\n[9, 0]\n...\n[9, 0]\n[9, 0]\n[9, 0]]"] ;
434 -> 444 ;
445 [label="Calyx symmetry=radially symmetrical or bilaterally symmetrical <= 0.5\nentropy = 0.003\nsamples = 3\nvalue = [[3, 0]\n[3, 0]\n[3, 0]\n...\n[3, 0]\n[3, 0]\n[3, 0]]"] ;
444 -> 445 ;
446 [label="Petal and sepal colors=white <= 0.5\nentropy = 0.002\nsamples = 2\nvalue = [[2, 0]\n[2, 0]\n[2, 0]\n...\n[2, 0]\n[2, 0]\n[2, 0]]"] ;
445 -> 446 ;
447 [label="entropy = 0.0\nsamples = 1\nvalue = [[1, 0]\n[1, 0]\n[1, 0]\n...\n[1, 0]\n[1, 0]\n[1, 0]]"] ;
446 -> 447 ;
448 [label="entropy = 0.0\nsamples = 1\nvalue = [[1, 0]\n[1, 0]\n[1, 0]\n...\n[1, 0]\n[1, 0]\n[1, 0]]"] ;
446 -> 448 ;
449 [label="entropy = 0.0\nsamples = 1\nvalue = [[1, 0]\n[1, 0]\n[1, 0]\n...\n[1, 0]\n[1, 0]\n[1, 0]]"] ;
445 -> 449 ;
450 [label="entropy = 0.004\nsamples = 6\nvalue = [[6, 0]\n[6, 0]\n[6, 0]\n...\n[6, 0]\n[6, 0]\n[6, 0]]"] ;
444 -> 450 ;
451 [label="Flower petal color=yellow <= 0.5\nentropy = 0.007\nsamples = 29\nvalue = [[29, 0]\n[29, 0]\n[29, 0]\n...\n[29, 0]\n[29, 0]\n[29, 0]]"] ;
409 -> 451 ;
452 [label="Petal and sepal colors=blue to purple or green to brown or orange or other or pink to red or white or yellow <= 0.5\nentropy = 0.006\nsamples = 17\nvalue = [[17, 0]\n[17, 0]\n[17, 0]\n...\n[17, 0]\n[17, 0]\n[17, 0]]"] ;
451 -> 452 ;
453 [label="Flower petal color=white or yellow <= 0.5\nentropy = 0.004\nsamples = 7\nvalue = [[7, 0]\n[7, 0]\n[7, 0]\n...\n[7, 0]\n[7, 0]\n[7, 0]]"] ;
452 -> 453 ;
454 [label="Stamen number=5 <= 0.5\nentropy = 0.003\nsamples = 3\nvalue = [[3, 0]\n[3, 0]\n[3, 0]\n...\n[3, 0]\n[3, 0]\n[3, 0]]"] ;
453 -> 454 ;
455 [label="entropy = 0.0\nsamples = 1\nvalue = [[1, 0]\n[1, 0]\n[1, 0]\n...\n[1, 0]\n[1, 0]\n[1, 0]]"] ;
454 -> 455 ;
456 [label="Flower petal color=white <= 0.5\nentropy = 0.002\nsamples = 2\nvalue = [[2, 0]\n[2, 0]\n[2, 0]\n...\n[2, 0]\n[2, 0]\n[2, 0]]"] ;
454 -> 456 ;
457 [label="entropy = 0.0\nsamples = 1\nvalue = [[1, 0]\n[1, 0]\n[1, 0]\n...\n[1, 0]\n[1, 0]\n[1, 0]]"] ;
456 -> 457 ;
458 [label="entropy = 0.0\nsamples = 1\nvalue = [[1, 0]\n[1, 0]\n[1, 0]\n...\n[1, 0]\n[1, 0]\n[1, 0]]"] ;
456 -> 458 ;
459 [label="Flower description=superior ovary <= 0.5\nentropy = 0.003\nsamples = 4\nvalue = [[4, 0]\n[4, 0]\n[4, 0]\n...\n[4, 0]\n[4, 0]\n[4, 0]]"] ;
453 -> 459 ;
460 [label="Leaf blade edges=lobes or teeth <= 0.5\nentropy = 0.002\nsamples = 2\nvalue = [[2, 0]\n[2, 0]\n[2, 0]\n...\n[2, 0]\n[2, 0]\n[2, 0]]"] ;
459 -> 460 ;
461 [label="entropy = 0.0\nsamples = 1\nvalue = [[1, 0]\n[1, 0]\n[1, 0]\n...\n[1, 0]\n[1, 0]\n[1, 0]]"] ;
460 -> 461 ;
462 [label="entropy = 0.0\nsamples = 1\nvalue = [[1, 0]\n[1, 0]\n[1, 0]\n...\n[1, 0]\n[1, 0]\n[1, 0]]"] ;
460 -> 462 ;
463 [label="entropy = 0.002\nsamples = 2\nvalue = [[2, 0]\n[2, 0]\n[2, 0]\n...\n[2, 0]\n[2, 0]\n[2, 0]]"] ;
459 -> 463 ;
464 [label="Flower petal color=white <= 0.5\nentropy = 0.005\nsamples = 10\nvalue = [[10, 0]\n[10, 0]\n[10, 0]\n...\n[10, 0]\n[10, 0]\n[10, 0]]"] ;
452 -> 464 ;
465 [label="Leaf type=simple <= 0.5\nentropy = 0.004\nsamples = 5\nvalue = [[5, 0]\n[5, 0]\n[5, 0]\n...\n[5, 0]\n[5, 0]\n[5, 0]]"] ;
464 -> 465 ;
466 [label="Leaf type=compound <= 0.5\nentropy = 0.002\nsamples = 2\nvalue = [[2, 0]\n[2, 0]\n[2, 0]\n...\n[2, 0]\n[2, 0]\n[2, 0]]"] ;
465 -> 466 ;
467 [label="entropy = 0.0\nsamples = 1\nvalue = [[1, 0]\n[1, 0]\n[1, 0]\n...\n[1, 0]\n[1, 0]\n[1, 0]]"] ;
466 -> 467 ;
468 [label="entropy = 0.0\nsamples = 1\nvalue = [[1, 0]\n[1, 0]\n[1, 0]\n...\n[1, 0]\n[1, 0]\n[1, 0]]"] ;
466 -> 468 ;
469 [label="Leaf blade edges=lobes <= 0.5\nentropy = 0.003\nsamples = 3\nvalue = [[3, 0]\n[3, 0]\n[3, 0]\n...\n[3, 0]\n[3, 0]\n[3, 0]]"] ;
465 -> 469 ;
470 [label="entropy = 0.0\nsamples = 1\nvalue = [[1, 0]\n[1, 0]\n[1, 0]\n...\n[1, 0]\n[1, 0]\n[1, 0]]"] ;
469 -> 470 ;
471 [label="entropy = 0.002\nsamples = 2\nvalue = [[2, 0]\n[2, 0]\n[2, 0]\n...\n[2, 0]\n[2, 0]\n[2, 0]]"] ;
469 -> 471 ;
472 [label="Leaf blade edges=lobes or entire <= 0.5\nentropy = 0.004\nsamples = 5\nvalue = [[5, 0]\n[5, 0]\n[5, 0]\n...\n[5, 0]\n[5, 0]\n[5, 0]]"] ;
464 -> 472 ;
473 [label="Leaf blade edges=lobes <= 0.5\nentropy = 0.003\nsamples = 3\nvalue = [[3, 0]\n[3, 0]\n[3, 0]\n...\n[3, 0]\n[3, 0]\n[3, 0]]"] ;
472 -> 473 ;
474 [label="Leaf blade edges=teeth <= 0.5\nentropy = 0.002\nsamples = 2\nvalue = [[2, 0]\n[2, 0]\n[2, 0]\n...\n[2, 0]\n[2, 0]\n[2, 0]]"] ;
473 -> 474 ;
475 [label="entropy = 0.0\nsamples = 1\nvalue = [[1, 0]\n[1, 0]\n[1, 0]\n...\n[1, 0]\n[1, 0]\n[1, 0]]"] ;
474 -> 475 ;
476 [label="entropy = 0.0\nsamples = 1\nvalue = [[1, 0]\n[1, 0]\n[1, 0]\n...\n[1, 0]\n[1, 0]\n[1, 0]]"] ;
474 -> 476 ;
477 [label="entropy = 0.0\nsamples = 1\nvalue = [[1, 0]\n[1, 0]\n[1, 0]\n...\n[1, 0]\n[1, 0]\n[1, 0]]"] ;
473 -> 477 ;
478 [label="entropy = 0.002\nsamples = 2\nvalue = [[2, 0]\n[2, 0]\n[2, 0]\n...\n[2, 0]\n[2, 0]\n[2, 0]]"] ;
472 -> 478 ;
479 [label="Stamen number=5 <= 0.5\nentropy = 0.005\nsamples = 12\nvalue = [[12, 0]\n[12, 0]\n[12, 0]\n...\n[12, 0]\n[12, 0]\n[12, 0]]"] ;
451 -> 479 ;
480 [label="Leaf blade edges=lobes <= 0.5\nentropy = 0.004\nsamples = 6\nvalue = [[6, 0]\n[6, 0]\n[6, 0]\n...\n[6, 0]\n[6, 0]\n[6, 0]]"] ;
479 -> 480 ;
481 [label="Leaf blade edges=lobes or teeth <= 0.5\nentropy = 0.002\nsamples = 2\nvalue = [[2, 0]\n[2, 0]\n[2, 0]\n...\n[2, 0]\n[2, 0]\n[2, 0]]"] ;
480 -> 481 ;
482 [label="entropy = 0.0\nsamples = 1\nvalue = [[1, 0]\n[1, 0]\n[1, 0]\n...\n[1, 0]\n[1, 0]\n[1, 0]]"] ;
481 -> 482 ;
483 [label="entropy = 0.0\nsamples = 1\nvalue = [[1, 0]\n[1, 0]\n[1, 0]\n...\n[1, 0]\n[1, 0]\n[1, 0]]"] ;
481 -> 483 ;
484 [label="entropy = 0.003\nsamples = 4\nvalue = [[4, 0]\n[4, 0]\n[4, 0]\n...\n[4, 0]\n[4, 0]\n[4, 0]]"] ;
480 -> 484 ;
485 [label="Leaf blade edges=teeth <= 0.5\nentropy = 0.004\nsamples = 6\nvalue = [[6, 0]\n[6, 0]\n[6, 0]\n...\n[6, 0]\n[6, 0]\n[6, 0]]"] ;
479 -> 485 ;
486 [label="Leaf type=compound <= 0.5\nentropy = 0.003\nsamples = 3\nvalue = [[3, 0]\n[3, 0]\n[3, 0]\n...\n[3, 0]\n[3, 0]\n[3, 0]]"] ;
485 -> 486 ;
487 [label="entropy = 0.002\nsamples = 2\nvalue = [[2, 0]\n[2, 0]\n[2, 0]\n...\n[2, 0]\n[2, 0]\n[2, 0]]"] ;
486 -> 487 ;
488 [label="entropy = 0.0\nsamples = 1\nvalue = [[1, 0]\n[1, 0]\n[1, 0]\n...\n[1, 0]\n[1, 0]\n[1, 0]]"] ;
486 -> 488 ;
489 [label="Flower description=superior ovary <= 0.5\nentropy = 0.003\nsamples = 3\nvalue = [[3, 0]\n[3, 0]\n[3, 0]\n...\n[3, 0]\n[3, 0]\n[3, 0]]"] ;
485 -> 489 ;
490 [label="entropy = 0.0\nsamples = 1\nvalue = [[1, 0]\n[1, 0]\n[1, 0]\n...\n[1, 0]\n[1, 0]\n[1, 0]]"] ;
489 -> 490 ;
491 [label="entropy = 0.002\nsamples = 2\nvalue = [[2, 0]\n[2, 0]\n[2, 0]\n...\n[2, 0]\n[2, 0]\n[2, 0]]"] ;
489 -> 491 ;
492 [label="Calyx symmetry=radially symmetrical <= 0.5\nentropy = 0.008\nsamples = 59\nvalue = [[59, 0]\n[59, 0]\n[59, 0]\n...\n[59, 0]\n[59, 0]\n[59, 0]]"] ;
408 -> 492 ;
493 [label="Flower petal color=blue to purple or pink to red <= 0.5\nentropy = 0.006\nsamples = 17\nvalue = [[17, 0]\n[17, 0]\n[17, 0]\n...\n[17, 0]\n[17, 0]\n[17, 0]]"] ;
492 -> 493 ;
494 [label="Petal and sepal colors=blue to purple <= 0.5\nentropy = 0.005\nsamples = 12\nvalue = [[12, 0]\n[12, 0]\n[12, 0]\n...\n[12, 0]\n[12, 0]\n[12, 0]]"] ;
493 -> 494 ;
495 [label="Petal and sepal colors=blue to purple or white <= 0.5\nentropy = 0.005\nsamples = 8\nvalue = [[8, 0]\n[8, 0]\n[8, 0]\n...\n[8, 0]\n[8, 0]\n[8, 0]]"] ;
494 -> 495 ;
496 [label="Flower petal color=yellow <= 0.5\nentropy = 0.004\nsamples = 5\nvalue = [[5, 0]\n[5, 0]\n[5, 0]\n...\n[5, 0]\n[5, 0]\n[5, 0]]"] ;
495 -> 496 ;
497 [label="Leaf arrangement=alternate or opposite <= 0.5\nentropy = 0.003\nsamples = 3\nvalue = [[3, 0]\n[3, 0]\n[3, 0]\n...\n[3, 0]\n[3, 0]\n[3, 0]]"] ;
496 -> 497 ;
498 [label="Flower petal color=orange or yellow <= 0.5\nentropy = 0.002\nsamples = 2\nvalue = [[2, 0]\n[2, 0]\n[2, 0]\n...\n[2, 0]\n[2, 0]\n[2, 0]]"] ;
497 -> 498 ;
499 [label="entropy = 0.0\nsamples = 1\nvalue = [[1, 0]\n[1, 0]\n[1, 0]\n...\n[1, 0]\n[1, 0]\n[1, 0]]"] ;
498 -> 499 ;
500 [label="entropy = 0.0\nsamples = 1\nvalue = [[1, 0]\n[1, 0]\n[1, 0]\n...\n[1, 0]\n[1, 0]\n[1, 0]]"] ;
498 -> 500 ;
501 [label="entropy = 0.0\nsamples = 1\nvalue = [[1, 0]\n[1, 0]\n[1, 0]\n...\n[1, 0]\n[1, 0]\n[1, 0]]"] ;
497 -> 501 ;
502 [label="entropy = 0.002\nsamples = 2\nvalue = [[2, 0]\n[2, 0]\n[2, 0]\n...\n[2, 0]\n[2, 0]\n[2, 0]]"] ;
496 -> 502 ;
503 [label="entropy = 0.003\nsamples = 3\nvalue = [[3, 0]\n[3, 0]\n[3, 0]\n...\n[3, 0]\n[3, 0]\n[3, 0]]"] ;
495 -> 503 ;
504 [label="Flower symmetry=bilaterally symmetrical <= 0.5\nentropy = 0.003\nsamples = 4\nvalue = [[4, 0]\n[4, 0]\n[4, 0]\n...\n[4, 0]\n[4, 0]\n[4, 0]]"] ;
494 -> 504 ;
505 [label="entropy = 0.002\nsamples = 2\nvalue = [[2, 0]\n[2, 0]\n[2, 0]\n...\n[2, 0]\n[2, 0]\n[2, 0]]"] ;
504 -> 505 ;
506 [label="Stamen number=4 <= 0.5\nentropy = 0.002\nsamples = 2\nvalue = [[2, 0]\n[2, 0]\n[2, 0]\n...\n[2, 0]\n[2, 0]\n[2, 0]]"] ;
504 -> 506 ;
507 [label="entropy = 0.0\nsamples = 1\nvalue = [[1, 0]\n[1, 0]\n[1, 0]\n...\n[1, 0]\n[1, 0]\n[1, 0]]"] ;
506 -> 507 ;
508 [label="entropy = 0.0\nsamples = 1\nvalue = [[1, 0]\n[1, 0]\n[1, 0]\n...\n[1, 0]\n[1, 0]\n[1, 0]]"] ;
506 -> 508 ;
509 [label="Flower symmetry=radially symmetrical <= 0.5\nentropy = 0.004\nsamples = 5\nvalue = [[5, 0]\n[5, 0]\n[5, 0]\n...\n[5, 0]\n[5, 0]\n[5, 0]]"] ;
493 -> 509 ;
510 [label="entropy = 0.002\nsamples = 2\nvalue = [[2, 0]\n[2, 0]\n[2, 0]\n...\n[2, 0]\n[2, 0]\n[2, 0]]"] ;
509 -> 510 ;
511 [label="entropy = 0.003\nsamples = 3\nvalue = [[3, 0]\n[3, 0]\n[3, 0]\n...\n[3, 0]\n[3, 0]\n[3, 0]]"] ;
509 -> 511 ;
512 [label="Fruit type (general)=dry & doesn't split open <= 0.5\nentropy = 0.007\nsamples = 42\nvalue = [[42, 0]\n[42, 0]\n[42, 0]\n...\n[42, 0]\n[42, 0]\n[42, 0]]"] ;
492 -> 512 ;
513 [label="Petal and sepal colors=white <= 0.5\nentropy = 0.006\nsamples = 16\nvalue = [[16, 0]\n[16, 0]\n[16, 0]\n...\n[16, 0]\n[16, 0]\n[16, 0]]"] ;
512 -> 513 ;
514 [label="Flower symmetry=radially symmetrical or bilaterally symmetrical <= 0.5\nentropy = 0.005\nsamples = 8\nvalue = [[8, 0]\n[8, 0]\n[8, 0]\n...\n[8, 0]\n[8, 0]\n[8, 0]]"] ;
513 -> 514 ;
515 [label="Number of sepals, petals or tepals=5 <= 0.5\nentropy = 0.004\nsamples = 6\nvalue = [[6, 0]\n[6, 0]\n[6, 0]\n...\n[6, 0]\n[6, 0]\n[6, 0]]"] ;
514 -> 515 ;
516 [label="entropy = 0.0\nsamples = 1\nvalue = [[1, 0]\n[1, 0]\n[1, 0]\n...\n[1, 0]\n[1, 0]\n[1, 0]]"] ;
515 -> 516 ;
517 [label="Flower petal color=white or yellow <= 0.5\nentropy = 0.004\nsamples = 5\nvalue = [[5, 0]\n[5, 0]\n[5, 0]\n...\n[5, 0]\n[5, 0]\n[5, 0]]"] ;
515 -> 517 ;
518 [label="entropy = 0.003\nsamples = 4\nvalue = [[4, 0]\n[4, 0]\n[4, 0]\n...\n[4, 0]\n[4, 0]\n[4, 0]]"] ;
517 -> 518 ;
519 [label="entropy = 0.0\nsamples = 1\nvalue = [[1, 0]\n[1, 0]\n[1, 0]\n...\n[1, 0]\n[1, 0]\n[1, 0]]"] ;
517 -> 519 ;
520 [label="entropy = 0.002\nsamples = 2\nvalue = [[2, 0]\n[2, 0]\n[2, 0]\n...\n[2, 0]\n[2, 0]\n[2, 0]]"] ;
514 -> 520 ;
521 [label="Stamen number=4 or 5 <= 0.5\nentropy = 0.005\nsamples = 8\nvalue = [[8, 0]\n[8, 0]\n[8, 0]\n...\n[8, 0]\n[8, 0]\n[8, 0]]"] ;
513 -> 521 ;
522 [label="Stamen number=5 <= 0.5\nentropy = 0.003\nsamples = 4\nvalue = [[4, 0]\n[4, 0]\n[4, 0]\n...\n[4, 0]\n[4, 0]\n[4, 0]]"] ;
521 -> 522 ;
523 [label="Growth form=subshrub <= 0.5\nentropy = 0.002\nsamples = 2\nvalue = [[2, 0]\n[2, 0]\n[2, 0]\n...\n[2, 0]\n[2, 0]\n[2, 0]]"] ;
522 -> 523 ;
524 [label="entropy = 0.0\nsamples = 1\nvalue = [[1, 0]\n[1, 0]\n[1, 0]\n...\n[1, 0]\n[1, 0]\n[1, 0]]"] ;
523 -> 524 ;
525 [label="entropy = 0.0\nsamples = 1\nvalue = [[1, 0]\n[1, 0]\n[1, 0]\n...\n[1, 0]\n[1, 0]\n[1, 0]]"] ;
523 -> 525 ;
526 [label="entropy = 0.002\nsamples = 2\nvalue = [[2, 0]\n[2, 0]\n[2, 0]\n...\n[2, 0]\n[2, 0]\n[2, 0]]"] ;
522 -> 526 ;
527 [label="Number of sepals, petals or tepals=4 or 5 <= 0.5\nentropy = 0.003\nsamples = 4\nvalue = [[4, 0]\n[4, 0]\n[4, 0]\n...\n[4, 0]\n[4, 0]\n[4, 0]]"] ;
521 -> 527 ;
528 [label="entropy = 0.0\nsamples = 1\nvalue = [[1, 0]\n[1, 0]\n[1, 0]\n...\n[1, 0]\n[1, 0]\n[1, 0]]"] ;
527 -> 528 ;
529 [label="entropy = 0.003\nsamples = 3\nvalue = [[3, 0]\n[3, 0]\n[3, 0]\n...\n[3, 0]\n[3, 0]\n[3, 0]]"] ;
527 -> 529 ;
530 [label="Stamen number=5 <= 0.5\nentropy = 0.006\nsamples = 26\nvalue = [[26, 0]\n[26, 0]\n[26, 0]\n...\n[26, 0]\n[26, 0]\n[26, 0]]"] ;
512 -> 530 ;
531 [label="Growth form=subshrub or vine or herb <= 0.5\nentropy = 0.004\nsamples = 6\nvalue = [[6, 0]\n[6, 0]\n[6, 0]\n...\n[6, 0]\n[6, 0]\n[6, 0]]"] ;
530 -> 531 ;
532 [label="Growth form=vine <= 0.5\nentropy = 0.003\nsamples = 3\nvalue = [[3, 0]\n[3, 0]\n[3, 0]\n...\n[3, 0]\n[3, 0]\n[3, 0]]"] ;
531 -> 532 ;
533 [label="entropy = 0.0\nsamples = 1\nvalue = [[1, 0]\n[1, 0]\n[1, 0]\n...\n[1, 0]\n[1, 0]\n[1, 0]]"] ;
532 -> 533 ;
534 [label="Stamen number=8 <= 0.5\nentropy = 0.002\nsamples = 2\nvalue = [[2, 0]\n[2, 0]\n[2, 0]\n...\n[2, 0]\n[2, 0]\n[2, 0]]"] ;
532 -> 534 ;
535 [label="entropy = 0.0\nsamples = 1\nvalue = [[1, 0]\n[1, 0]\n[1, 0]\n...\n[1, 0]\n[1, 0]\n[1, 0]]"] ;
534 -> 535 ;
536 [label="entropy = 0.0\nsamples = 1\nvalue = [[1, 0]\n[1, 0]\n[1, 0]\n...\n[1, 0]\n[1, 0]\n[1, 0]]"] ;
534 -> 536 ;
537 [label="Stamen number=0 or 1 or 3 or 4 or 5 or 6 or 7 or 8 or 9 or 10 or 11 or 12 or 13 <= 0.5\nentropy = 0.003\nsamples = 3\nvalue = [[3, 0]\n[3, 0]\n[3, 0]\n...\n[3, 0]\n[3, 0]\n[3, 0]]"] ;
531 -> 537 ;
538 [label="Leaf arrangement=alternate <= 0.5\nentropy = 0.002\nsamples = 2\nvalue = [[2, 0]\n[2, 0]\n[2, 0]\n...\n[2, 0]\n[2, 0]\n[2, 0]]"] ;
537 -> 538 ;
539 [label="entropy = 0.0\nsamples = 1\nvalue = [[1, 0]\n[1, 0]\n[1, 0]\n...\n[1, 0]\n[1, 0]\n[1, 0]]"] ;
538 -> 539 ;
540 [label="entropy = 0.0\nsamples = 1\nvalue = [[1, 0]\n[1, 0]\n[1, 0]\n...\n[1, 0]\n[1, 0]\n[1, 0]]"] ;
538 -> 540 ;
541 [label="entropy = 0.0\nsamples = 1\nvalue = [[1, 0]\n[1, 0]\n[1, 0]\n...\n[1, 0]\n[1, 0]\n[1, 0]]"] ;
537 -> 541 ;
542 [label="Petal and sepal colors=blue to purple or pink to red <= 0.5\nentropy = 0.006\nsamples = 20\nvalue = [[20, 0]\n[20, 0]\n[20, 0]\n...\n[20, 0]\n[20, 0]\n[20, 0]]"] ;
530 -> 542 ;
543 [label="Petal and sepal colors=blue to purple <= 0.5\nentropy = 0.006\nsamples = 17\nvalue = [[17, 0]\n[17, 0]\n[17, 0]\n...\n[17, 0]\n[17, 0]\n[17, 0]]"] ;
542 -> 543 ;
544 [label="Flower petal color=white <= 0.5\nentropy = 0.005\nsamples = 14\nvalue = [[14, 0]\n[14, 0]\n[14, 0]\n...\n[14, 0]\n[14, 0]\n[14, 0]]"] ;
543 -> 544 ;
545 [label="Petal and sepal colors=blue to purple or white <= 0.5\nentropy = 0.005\nsamples = 11\nvalue = [[11, 0]\n[11, 0]\n[11, 0]\n...\n[11, 0]\n[11, 0]\n[11, 0]]"] ;
544 -> 545 ;
546 [label="Flower petal color=white or yellow <= 0.5\nentropy = 0.005\nsamples = 9\nvalue = [[9, 0]\n[9, 0]\n[9, 0]\n...\n[9, 0]\n[9, 0]\n[9, 0]]"] ;
545 -> 546 ;
547 [label="Flower petal color=? <= 0.5\nentropy = 0.004\nsamples = 7\nvalue = [[7, 0]\n[7, 0]\n[7, 0]\n...\n[7, 0]\n[7, 0]\n[7, 0]]"] ;
546 -> 547 ;
548 [label="Flower petal color=blue to purple or white or yellow <= 0.5\nentropy = 0.004\nsamples = 5\nvalue = [[5, 0]\n[5, 0]\n[5, 0]\n...\n[5, 0]\n[5, 0]\n[5, 0]]"] ;
547 -> 548 ;
549 [label="Petal and sepal colors=blue to purple or green to brown or pink to red <= 0.5\nentropy = 0.003\nsamples = 4\nvalue = [[4, 0]\n[4, 0]\n[4, 0]\n...\n[4, 0]\n[4, 0]\n[4, 0]]"] ;
548 -> 549 ;
550 [label="Flower petal color=green to brown or white <= 0.5\nentropy = 0.003\nsamples = 3\nvalue = [[3, 0]\n[3, 0]\n[3, 0]\n...\n[3, 0]\n[3, 0]\n[3, 0]]"] ;
549 -> 550 ;
551 [label="Flower petal color=orange or yellow <= 0.5\nentropy = 0.002\nsamples = 2\nvalue = [[2, 0]\n[2, 0]\n[2, 0]\n...\n[2, 0]\n[2, 0]\n[2, 0]]"] ;
550 -> 551 ;
552 [label="entropy = 0.0\nsamples = 1\nvalue = [[1, 0]\n[1, 0]\n[1, 0]\n...\n[1, 0]\n[1, 0]\n[1, 0]]"] ;
551 -> 552 ;
553 [label="entropy = 0.0\nsamples = 1\nvalue = [[1, 0]\n[1, 0]\n[1, 0]\n...\n[1, 0]\n[1, 0]\n[1, 0]]"] ;
551 -> 553 ;
554 [label="entropy = 0.0\nsamples = 1\nvalue = [[1, 0]\n[1, 0]\n[1, 0]\n...\n[1, 0]\n[1, 0]\n[1, 0]]"] ;
550 -> 554 ;
555 [label="entropy = 0.0\nsamples = 1\nvalue = [[1, 0]\n[1, 0]\n[1, 0]\n...\n[1, 0]\n[1, 0]\n[1, 0]]"] ;
549 -> 555 ;
556 [label="entropy = 0.0\nsamples = 1\nvalue = [[1, 0]\n[1, 0]\n[1, 0]\n...\n[1, 0]\n[1, 0]\n[1, 0]]"] ;
548 -> 556 ;
557 [label="Flower symmetry=radially symmetrical <= 0.5\nentropy = 0.002\nsamples = 2\nvalue = [[2, 0]\n[2, 0]\n[2, 0]\n...\n[2, 0]\n[2, 0]\n[2, 0]]"] ;
547 -> 557 ;
558 [label="entropy = 0.0\nsamples = 1\nvalue = [[1, 0]\n[1, 0]\n[1, 0]\n...\n[1, 0]\n[1, 0]\n[1, 0]]"] ;
557 -> 558 ;
559 [label="entropy = 0.0\nsamples = 1\nvalue = [[1, 0]\n[1, 0]\n[1, 0]\n...\n[1, 0]\n[1, 0]\n[1, 0]]"] ;
557 -> 559 ;
560 [label="entropy = 0.002\nsamples = 2\nvalue = [[2, 0]\n[2, 0]\n[2, 0]\n...\n[2, 0]\n[2, 0]\n[2, 0]]"] ;
546 -> 560 ;
561 [label="entropy = 0.002\nsamples = 2\nvalue = [[2, 0]\n[2, 0]\n[2, 0]\n...\n[2, 0]\n[2, 0]\n[2, 0]]"] ;
545 -> 561 ;
562 [label="Leaf arrangement=alternate <= 0.5\nentropy = 0.003\nsamples = 3\nvalue = [[3, 0]\n[3, 0]\n[3, 0]\n...\n[3, 0]\n[3, 0]\n[3, 0]]"] ;
544 -> 562 ;
563 [label="entropy = 0.002\nsamples = 2\nvalue = [[2, 0]\n[2, 0]\n[2, 0]\n...\n[2, 0]\n[2, 0]\n[2, 0]]"] ;
562 -> 563 ;
564 [label="entropy = 0.0\nsamples = 1\nvalue = [[1, 0]\n[1, 0]\n[1, 0]\n...\n[1, 0]\n[1, 0]\n[1, 0]]"] ;
562 -> 564 ;
565 [label="entropy = 0.003\nsamples = 3\nvalue = [[3, 0]\n[3, 0]\n[3, 0]\n...\n[3, 0]\n[3, 0]\n[3, 0]]"] ;
543 -> 565 ;
566 [label="entropy = 0.003\nsamples = 3\nvalue = [[3, 0]\n[3, 0]\n[3, 0]\n...\n[3, 0]\n[3, 0]\n[3, 0]]"] ;
542 -> 566 ;
567 [label="Number of sepals, petals or tepals=5 <= 0.5\nentropy = 0.009\nsamples = 110\nvalue = [[110, 0]\n[110, 0]\n[110, 0]\n...\n[110, 0]\n[110, 0]\n[110, 0]]"] ;
407 -> 567 ;
568 [label="Flower description=superior ovary & hypanthium <= 0.5\nentropy = 0.008\nsamples = 57\nvalue = [[57, 0]\n[57, 0]\n[57, 0]\n...\n[57, 0]\n[57, 0]\n[57, 0]]"] ;
567 -> 568 ;
569 [label="Stamen number=6 <= 0.5\nentropy = 0.007\nsamples = 29\nvalue = [[29, 0]\n[29, 0]\n[29, 0]\n...\n[29, 0]\n[29, 0]\n[29, 0]]"] ;
568 -> 569 ;
570 [label="Flower petal color=green to brown or pink to red or white <= 0.5\nentropy = 0.005\nsamples = 12\nvalue = [[12, 0]\n[12, 0]\n[12, 0]\n...\n[12, 0]\n[12, 0]\n[12, 0]]"] ;
569 -> 570 ;
571 [label="Leaf blade edges=teeth or entire <= 0.5\nentropy = 0.004\nsamples = 6\nvalue = [[6, 0]\n[6, 0]\n[6, 0]\n...\n[6, 0]\n[6, 0]\n[6, 0]]"] ;
570 -> 571 ;
572 [label="Leaf type=simple <= 0.5\nentropy = 0.003\nsamples = 3\nvalue = [[3, 0]\n[3, 0]\n[3, 0]\n...\n[3, 0]\n[3, 0]\n[3, 0]]"] ;
571 -> 572 ;
573 [label="entropy = 0.0\nsamples = 1\nvalue = [[1, 0]\n[1, 0]\n[1, 0]\n...\n[1, 0]\n[1, 0]\n[1, 0]]"] ;
572 -> 573 ;
574 [label="Calyx symmetry=radially symmetrical <= 0.5\nentropy = 0.002\nsamples = 2\nvalue = [[2, 0]\n[2, 0]\n[2, 0]\n...\n[2, 0]\n[2, 0]\n[2, 0]]"] ;
572 -> 574 ;
575 [label="entropy = 0.0\nsamples = 1\nvalue = [[1, 0]\n[1, 0]\n[1, 0]\n...\n[1, 0]\n[1, 0]\n[1, 0]]"] ;
574 -> 575 ;
576 [label="entropy = 0.0\nsamples = 1\nvalue = [[1, 0]\n[1, 0]\n[1, 0]\n...\n[1, 0]\n[1, 0]\n[1, 0]]"] ;
574 -> 576 ;
577 [label="Flower petal color=? <= 0.5\nentropy = 0.003\nsamples = 3\nvalue = [[3, 0]\n[3, 0]\n[3, 0]\n...\n[3, 0]\n[3, 0]\n[3, 0]]"] ;
571 -> 577 ;
578 [label="Fruit type (general)=dry & splits open or dry & doesn't split open or fleshy <= 0.5\nentropy = 0.002\nsamples = 2\nvalue = [[2, 0]\n[2, 0]\n[2, 0]\n...\n[2, 0]\n[2, 0]\n[2, 0]]"] ;
577 -> 578 ;
579 [label="entropy = 0.0\nsamples = 1\nvalue = [[1, 0]\n[1, 0]\n[1, 0]\n...\n[1, 0]\n[1, 0]\n[1, 0]]"] ;
578 -> 579 ;
580 [label="entropy = 0.0\nsamples = 1\nvalue = [[1, 0]\n[1, 0]\n[1, 0]\n...\n[1, 0]\n[1, 0]\n[1, 0]]"] ;
578 -> 580 ;
581 [label="entropy = 0.0\nsamples = 1\nvalue = [[1, 0]\n[1, 0]\n[1, 0]\n...\n[1, 0]\n[1, 0]\n[1, 0]]"] ;
577 -> 581 ;
582 [label="Fringed petal edges=not fringed <= 0.5\nentropy = 0.004\nsamples = 6\nvalue = [[6, 0]\n[6, 0]\n[6, 0]\n...\n[6, 0]\n[6, 0]\n[6, 0]]"] ;
570 -> 582 ;
583 [label="Petal and sepal colors=green to brown <= 0.5\nentropy = 0.002\nsamples = 2\nvalue = [[2, 0]\n[2, 0]\n[2, 0]\n...\n[2, 0]\n[2, 0]\n[2, 0]]"] ;
582 -> 583 ;
584 [label="entropy = 0.0\nsamples = 1\nvalue = [[1, 0]\n[1, 0]\n[1, 0]\n...\n[1, 0]\n[1, 0]\n[1, 0]]"] ;
583 -> 584 ;
585 [label="entropy = 0.0\nsamples = 1\nvalue = [[1, 0]\n[1, 0]\n[1, 0]\n...\n[1, 0]\n[1, 0]\n[1, 0]]"] ;
583 -> 585 ;
586 [label="Flower description=superior ovary <= 0.5\nentropy = 0.003\nsamples = 4\nvalue = [[4, 0]\n[4, 0]\n[4, 0]\n...\n[4, 0]\n[4, 0]\n[4, 0]]"] ;
582 -> 586 ;
587 [label="entropy = 0.0\nsamples = 1\nvalue = [[1, 0]\n[1, 0]\n[1, 0]\n...\n[1, 0]\n[1, 0]\n[1, 0]]"] ;
586 -> 587 ;
588 [label="Stamen number=6 or 7 or 8 <= 0.5\nentropy = 0.003\nsamples = 3\nvalue = [[3, 0]\n[3, 0]\n[3, 0]\n...\n[3, 0]\n[3, 0]\n[3, 0]]"] ;
586 -> 588 ;
589 [label="Stamen number=5 or 6 <= 0.5\nentropy = 0.002\nsamples = 2\nvalue = [[2, 0]\n[2, 0]\n[2, 0]\n...\n[2, 0]\n[2, 0]\n[2, 0]]"] ;
588 -> 589 ;
590 [label="entropy = 0.0\nsamples = 1\nvalue = [[1, 0]\n[1, 0]\n[1, 0]\n...\n[1, 0]\n[1, 0]\n[1, 0]]"] ;
589 -> 590 ;
591 [label="entropy = 0.0\nsamples = 1\nvalue = [[1, 0]\n[1, 0]\n[1, 0]\n...\n[1, 0]\n[1, 0]\n[1, 0]]"] ;
589 -> 591 ;
592 [label="entropy = 0.0\nsamples = 1\nvalue = [[1, 0]\n[1, 0]\n[1, 0]\n...\n[1, 0]\n[1, 0]\n[1, 0]]"] ;
588 -> 592 ;
593 [label="Fringed petal edges=not fringed <= 0.5\nentropy = 0.006\nsamples = 17\nvalue = [[17, 0]\n[17, 0]\n[17, 0]\n...\n[17, 0]\n[17, 0]\n[17, 0]]"] ;
569 -> 593 ;
594 [label="entropy = 0.005\nsamples = 14\nvalue = [[14, 0]\n[14, 0]\n[14, 0]\n...\n[14, 0]\n[14, 0]\n[14, 0]]"] ;
593 -> 594 ;
595 [label="entropy = 0.003\nsamples = 3\nvalue = [[3, 0]\n[3, 0]\n[3, 0]\n...\n[3, 0]\n[3, 0]\n[3, 0]]"] ;
593 -> 595 ;
596 [label="Leaf blade edges=teeth <= 0.5\nentropy = 0.007\nsamples = 28\nvalue = [[28, 0]\n[28, 0]\n[28, 0]\n...\n[28, 0]\n[28, 0]\n[28, 0]]"] ;
568 -> 596 ;
597 [label="Petal and sepal colors=blue to purple <= 0.5\nentropy = 0.005\nsamples = 14\nvalue = [[14, 0]\n[14, 0]\n[14, 0]\n...\n[14, 0]\n[14, 0]\n[14, 0]]"] ;
596 -> 597 ;
598 [label="Flower petal color=pink to red or white <= 0.5\nentropy = 0.005\nsamples = 9\nvalue = [[9, 0]\n[9, 0]\n[9, 0]\n...\n[9, 0]\n[9, 0]\n[9, 0]]"] ;
597 -> 598 ;
599 [label="Calyx symmetry=radially symmetrical <= 0.5\nentropy = 0.004\nsamples = 6\nvalue = [[6, 0]\n[6, 0]\n[6, 0]\n...\n[6, 0]\n[6, 0]\n[6, 0]]"] ;
598 -> 599 ;
600 [label="Flower petal color=blue to purple or white <= 0.5\nentropy = 0.003\nsamples = 4\nvalue = [[4, 0]\n[4, 0]\n[4, 0]\n...\n[4, 0]\n[4, 0]\n[4, 0]]"] ;
599 -> 600 ;
601 [label="Petal and sepal colors=blue to purple or white or yellow <= 0.5\nentropy = 0.003\nsamples = 3\nvalue = [[3, 0]\n[3, 0]\n[3, 0]\n...\n[3, 0]\n[3, 0]\n[3, 0]]"] ;
600 -> 601 ;
602 [label="Flower petal color=pink to red or yellow <= 0.5\nentropy = 0.002\nsamples = 2\nvalue = [[2, 0]\n[2, 0]\n[2, 0]\n...\n[2, 0]\n[2, 0]\n[2, 0]]"] ;
601 -> 602 ;
603 [label="entropy = 0.0\nsamples = 1\nvalue = [[1, 0]\n[1, 0]\n[1, 0]\n...\n[1, 0]\n[1, 0]\n[1, 0]]"] ;
602 -> 603 ;
604 [label="entropy = 0.0\nsamples = 1\nvalue = [[1, 0]\n[1, 0]\n[1, 0]\n...\n[1, 0]\n[1, 0]\n[1, 0]]"] ;
602 -> 604 ;
605 [label="entropy = 0.0\nsamples = 1\nvalue = [[1, 0]\n[1, 0]\n[1, 0]\n...\n[1, 0]\n[1, 0]\n[1, 0]]"] ;
601 -> 605 ;
606 [label="entropy = 0.0\nsamples = 1\nvalue = [[1, 0]\n[1, 0]\n[1, 0]\n...\n[1, 0]\n[1, 0]\n[1, 0]]"] ;
600 -> 606 ;
607 [label="Stamen number=10 <= 0.5\nentropy = 0.002\nsamples = 2\nvalue = [[2, 0]\n[2, 0]\n[2, 0]\n...\n[2, 0]\n[2, 0]\n[2, 0]]"] ;
599 -> 607 ;
608 [label="entropy = 0.0\nsamples = 1\nvalue = [[1, 0]\n[1, 0]\n[1, 0]\n...\n[1, 0]\n[1, 0]\n[1, 0]]"] ;
607 -> 608 ;
609 [label="entropy = 0.0\nsamples = 1\nvalue = [[1, 0]\n[1, 0]\n[1, 0]\n...\n[1, 0]\n[1, 0]\n[1, 0]]"] ;
607 -> 609 ;
610 [label="entropy = 0.003\nsamples = 3\nvalue = [[3, 0]\n[3, 0]\n[3, 0]\n...\n[3, 0]\n[3, 0]\n[3, 0]]"] ;
598 -> 610 ;
611 [label="Flower petal color=blue to purple or pink to red <= 0.5\nentropy = 0.004\nsamples = 5\nvalue = [[5, 0]\n[5, 0]\n[5, 0]\n...\n[5, 0]\n[5, 0]\n[5, 0]]"] ;
597 -> 611 ;
612 [label="entropy = 0.003\nsamples = 3\nvalue = [[3, 0]\n[3, 0]\n[3, 0]\n...\n[3, 0]\n[3, 0]\n[3, 0]]"] ;
611 -> 612 ;
613 [label="entropy = 0.002\nsamples = 2\nvalue = [[2, 0]\n[2, 0]\n[2, 0]\n...\n[2, 0]\n[2, 0]\n[2, 0]]"] ;
611 -> 613 ;
614 [label="Fruit type (general)=dry & splits open or dry & doesn't split open <= 0.5\nentropy = 0.005\nsamples = 14\nvalue = [[14, 0]\n[14, 0]\n[14, 0]\n...\n[14, 0]\n[14, 0]\n[14, 0]]"] ;
596 -> 614 ;
615 [label="Calyx symmetry=bilaterally symmetrical <= 0.5\nentropy = 0.003\nsamples = 4\nvalue = [[4, 0]\n[4, 0]\n[4, 0]\n...\n[4, 0]\n[4, 0]\n[4, 0]]"] ;
614 -> 615 ;
616 [label="Petal and sepal colors=blue to purple or white <= 0.5\nentropy = 0.002\nsamples = 2\nvalue = [[2, 0]\n[2, 0]\n[2, 0]\n...\n[2, 0]\n[2, 0]\n[2, 0]]"] ;
615 -> 616 ;
617 [label="entropy = 0.0\nsamples = 1\nvalue = [[1, 0]\n[1, 0]\n[1, 0]\n...\n[1, 0]\n[1, 0]\n[1, 0]]"] ;
616 -> 617 ;
618 [label="entropy = 0.0\nsamples = 1\nvalue = [[1, 0]\n[1, 0]\n[1, 0]\n...\n[1, 0]\n[1, 0]\n[1, 0]]"] ;
616 -> 618 ;
619 [label="Flower petal color=white <= 0.5\nentropy = 0.002\nsamples = 2\nvalue = [[2, 0]\n[2, 0]\n[2, 0]\n...\n[2, 0]\n[2, 0]\n[2, 0]]"] ;
615 -> 619 ;
620 [label="entropy = 0.0\nsamples = 1\nvalue = [[1, 0]\n[1, 0]\n[1, 0]\n...\n[1, 0]\n[1, 0]\n[1, 0]]"] ;
619 -> 620 ;
621 [label="entropy = 0.0\nsamples = 1\nvalue = [[1, 0]\n[1, 0]\n[1, 0]\n...\n[1, 0]\n[1, 0]\n[1, 0]]"] ;
619 -> 621 ;
622 [label="Flower petal color=blue to purple or pink to red <= 0.5\nentropy = 0.005\nsamples = 10\nvalue = [[10, 0]\n[10, 0]\n[10, 0]\n...\n[10, 0]\n[10, 0]\n[10, 0]]"] ;
614 -> 622 ;
623 [label="Flower petal color=pink to red or white <= 0.5\nentropy = 0.004\nsamples = 7\nvalue = [[7, 0]\n[7, 0]\n[7, 0]\n...\n[7, 0]\n[7, 0]\n[7, 0]]"] ;
622 -> 623 ;
624 [label="Petal and sepal colors=pink to red <= 0.5\nentropy = 0.003\nsamples = 4\nvalue = [[4, 0]\n[4, 0]\n[4, 0]\n...\n[4, 0]\n[4, 0]\n[4, 0]]"] ;
623 -> 624 ;
625 [label="Flower petal color=blue to purple or white or yellow <= 0.5\nentropy = 0.003\nsamples = 3\nvalue = [[3, 0]\n[3, 0]\n[3, 0]\n...\n[3, 0]\n[3, 0]\n[3, 0]]"] ;
624 -> 625 ;
626 [label="Flower petal color=blue to purple or white <= 0.5\nentropy = 0.002\nsamples = 2\nvalue = [[2, 0]\n[2, 0]\n[2, 0]\n...\n[2, 0]\n[2, 0]\n[2, 0]]"] ;
625 -> 626 ;
627 [label="entropy = 0.0\nsamples = 1\nvalue = [[1, 0]\n[1, 0]\n[1, 0]\n...\n[1, 0]\n[1, 0]\n[1, 0]]"] ;
626 -> 627 ;
628 [label="entropy = 0.0\nsamples = 1\nvalue = [[1, 0]\n[1, 0]\n[1, 0]\n...\n[1, 0]\n[1, 0]\n[1, 0]]"] ;
626 -> 628 ;
629 [label="entropy = 0.0\nsamples = 1\nvalue = [[1, 0]\n[1, 0]\n[1, 0]\n...\n[1, 0]\n[1, 0]\n[1, 0]]"] ;
625 -> 629 ;
630 [label="entropy = 0.0\nsamples = 1\nvalue = [[1, 0]\n[1, 0]\n[1, 0]\n...\n[1, 0]\n[1, 0]\n[1, 0]]"] ;
624 -> 630 ;
631 [label="entropy = 0.003\nsamples = 3\nvalue = [[3, 0]\n[3, 0]\n[3, 0]\n...\n[3, 0]\n[3, 0]\n[3, 0]]"] ;
623 -> 631 ;
632 [label="Petal and sepal colors=blue to purple <= 0.5\nentropy = 0.003\nsamples = 3\nvalue = [[3, 0]\n[3, 0]\n[3, 0]\n...\n[3, 0]\n[3, 0]\n[3, 0]]"] ;
622 -> 632 ;
633 [label="entropy = 0.002\nsamples = 2\nvalue = [[2, 0]\n[2, 0]\n[2, 0]\n...\n[2, 0]\n[2, 0]\n[2, 0]]"] ;
632 -> 633 ;
634 [label="entropy = 0.0\nsamples = 1\nvalue = [[1, 0]\n[1, 0]\n[1, 0]\n...\n[1, 0]\n[1, 0]\n[1, 0]]"] ;
632 -> 634 ;
635 [label="Flower petal color=green to brown or pink to red or white <= 0.5\nentropy = 0.007\nsamples = 53\nvalue = [[53, 0]\n[53, 0]\n[53, 0]\n...\n[53, 0]\n[53, 0]\n[53, 0]]"] ;
567 -> 635 ;
636 [label="Stamen number=5 <= 0.5\nentropy = 0.007\nsamples = 36\nvalue = [[36, 0]\n[36, 0]\n[36, 0]\n...\n[36, 0]\n[36, 0]\n[36, 0]]"] ;
635 -> 636 ;
637 [label="Stamen number=5 or 6 or 7 or 8 <= 0.5\nentropy = 0.006\nsamples = 19\nvalue = [[19, 0]\n[19, 0]\n[19, 0]\n...\n[19, 0]\n[19, 0]\n[19, 0]]"] ;
636 -> 637 ;
638 [label="Petal and sepal colors=green to brown or white <= 0.5\nentropy = 0.005\nsamples = 14\nvalue = [[14, 0]\n[14, 0]\n[14, 0]\n...\n[14, 0]\n[14, 0]\n[14, 0]]"] ;
637 -> 638 ;
639 [label="Fruit type (general)=dry & doesn't split open <= 0.5\nentropy = 0.005\nsamples = 10\nvalue = [[10, 0]\n[10, 0]\n[10, 0]\n...\n[10, 0]\n[10, 0]\n[10, 0]]"] ;
638 -> 639 ;
640 [label="Petal and sepal colors=white or yellow <= 0.5\nentropy = 0.003\nsamples = 4\nvalue = [[4, 0]\n[4, 0]\n[4, 0]\n...\n[4, 0]\n[4, 0]\n[4, 0]]"] ;
639 -> 640 ;
641 [label="Fruit type (general)=dry & splits open or dry & doesn't split open <= 0.5\nentropy = 0.002\nsamples = 2\nvalue = [[2, 0]\n[2, 0]\n[2, 0]\n...\n[2, 0]\n[2, 0]\n[2, 0]]"] ;
640 -> 641 ;
642 [label="entropy = 0.0\nsamples = 1\nvalue = [[1, 0]\n[1, 0]\n[1, 0]\n...\n[1, 0]\n[1, 0]\n[1, 0]]"] ;
641 -> 642 ;
643 [label="entropy = 0.0\nsamples = 1\nvalue = [[1, 0]\n[1, 0]\n[1, 0]\n...\n[1, 0]\n[1, 0]\n[1, 0]]"] ;
641 -> 643 ;
644 [label="Calyx symmetry=radially symmetrical <= 0.5\nentropy = 0.002\nsamples = 2\nvalue = [[2, 0]\n[2, 0]\n[2, 0]\n...\n[2, 0]\n[2, 0]\n[2, 0]]"] ;
640 -> 644 ;
645 [label="entropy = 0.0\nsamples = 1\nvalue = [[1, 0]\n[1, 0]\n[1, 0]\n...\n[1, 0]\n[1, 0]\n[1, 0]]"] ;
644 -> 645 ;
646 [label="entropy = 0.0\nsamples = 1\nvalue = [[1, 0]\n[1, 0]\n[1, 0]\n...\n[1, 0]\n[1, 0]\n[1, 0]]"] ;
644 -> 646 ;
647 [label="Stamen number=5 or 8 <= 0.5\nentropy = 0.004\nsamples = 6\nvalue = [[6, 0]\n[6, 0]\n[6, 0]\n...\n[6, 0]\n[6, 0]\n[6, 0]]"] ;
639 -> 647 ;
648 [label="Stamen number=8 <= 0.5\nentropy = 0.003\nsamples = 3\nvalue = [[3, 0]\n[3, 0]\n[3, 0]\n...\n[3, 0]\n[3, 0]\n[3, 0]]"] ;
647 -> 648 ;
649 [label="Stamen number=5 or 6 <= 0.5\nentropy = 0.002\nsamples = 2\nvalue = [[2, 0]\n[2, 0]\n[2, 0]\n...\n[2, 0]\n[2, 0]\n[2, 0]]"] ;
648 -> 649 ;
650 [label="entropy = 0.0\nsamples = 1\nvalue = [[1, 0]\n[1, 0]\n[1, 0]\n...\n[1, 0]\n[1, 0]\n[1, 0]]"] ;
649 -> 650 ;
651 [label="entropy = 0.0\nsamples = 1\nvalue = [[1, 0]\n[1, 0]\n[1, 0]\n...\n[1, 0]\n[1, 0]\n[1, 0]]"] ;
649 -> 651 ;
652 [label="entropy = 0.0\nsamples = 1\nvalue = [[1, 0]\n[1, 0]\n[1, 0]\n...\n[1, 0]\n[1, 0]\n[1, 0]]"] ;
648 -> 652 ;
653 [label="Flower petal color=blue to purple or pink to red <= 0.5\nentropy = 0.003\nsamples = 3\nvalue = [[3, 0]\n[3, 0]\n[3, 0]\n...\n[3, 0]\n[3, 0]\n[3, 0]]"] ;
647 -> 653 ;
654 [label="Flower petal color=pink to red <= 0.5\nentropy = 0.002\nsamples = 2\nvalue = [[2, 0]\n[2, 0]\n[2, 0]\n...\n[2, 0]\n[2, 0]\n[2, 0]]"] ;
653 -> 654 ;
655 [label="entropy = 0.0\nsamples = 1\nvalue = [[1, 0]\n[1, 0]\n[1, 0]\n...\n[1, 0]\n[1, 0]\n[1, 0]]"] ;
654 -> 655 ;
656 [label="entropy = 0.0\nsamples = 1\nvalue = [[1, 0]\n[1, 0]\n[1, 0]\n...\n[1, 0]\n[1, 0]\n[1, 0]]"] ;
654 -> 656 ;
657 [label="entropy = 0.0\nsamples = 1\nvalue = [[1, 0]\n[1, 0]\n[1, 0]\n...\n[1, 0]\n[1, 0]\n[1, 0]]"] ;
653 -> 657 ;
658 [label="Flower description=superior ovary <= 0.5\nentropy = 0.003\nsamples = 4\nvalue = [[4, 0]\n[4, 0]\n[4, 0]\n...\n[4, 0]\n[4, 0]\n[4, 0]]"] ;
638 -> 658 ;
659 [label="entropy = 0.0\nsamples = 1\nvalue = [[1, 0]\n[1, 0]\n[1, 0]\n...\n[1, 0]\n[1, 0]\n[1, 0]]"] ;
658 -> 659 ;
660 [label="Stamen number=6 or 7 or 8 <= 0.5\nentropy = 0.003\nsamples = 3\nvalue = [[3, 0]\n[3, 0]\n[3, 0]\n...\n[3, 0]\n[3, 0]\n[3, 0]]"] ;
658 -> 660 ;
661 [label="entropy = 0.0\nsamples = 1\nvalue = [[1, 0]\n[1, 0]\n[1, 0]\n...\n[1, 0]\n[1, 0]\n[1, 0]]"] ;
660 -> 661 ;
662 [label="entropy = 0.002\nsamples = 2\nvalue = [[2, 0]\n[2, 0]\n[2, 0]\n...\n[2, 0]\n[2, 0]\n[2, 0]]"] ;
660 -> 662 ;
663 [label="Petal and sepal colors=pink to red <= 0.5\nentropy = 0.004\nsamples = 5\nvalue = [[5, 0]\n[5, 0]\n[5, 0]\n...\n[5, 0]\n[5, 0]\n[5, 0]]"] ;
637 -> 663 ;
664 [label="Leaf blade edges=entire <= 0.5\nentropy = 0.003\nsamples = 3\nvalue = [[3, 0]\n[3, 0]\n[3, 0]\n...\n[3, 0]\n[3, 0]\n[3, 0]]"] ;
663 -> 664 ;
665 [label="entropy = 0.0\nsamples = 1\nvalue = [[1, 0]\n[1, 0]\n[1, 0]\n...\n[1, 0]\n[1, 0]\n[1, 0]]"] ;
664 -> 665 ;
666 [label="Flower petal color=green to brown or pink to red or yellow <= 0.5\nentropy = 0.002\nsamples = 2\nvalue = [[2, 0]\n[2, 0]\n[2, 0]\n...\n[2, 0]\n[2, 0]\n[2, 0]]"] ;
664 -> 666 ;
667 [label="entropy = 0.0\nsamples = 1\nvalue = [[1, 0]\n[1, 0]\n[1, 0]\n...\n[1, 0]\n[1, 0]\n[1, 0]]"] ;
666 -> 667 ;
668 [label="entropy = 0.0\nsamples = 1\nvalue = [[1, 0]\n[1, 0]\n[1, 0]\n...\n[1, 0]\n[1, 0]\n[1, 0]]"] ;
666 -> 668 ;
669 [label="Calyx symmetry=radially symmetrical or bilaterally symmetrical <= 0.5\nentropy = 0.002\nsamples = 2\nvalue = [[2, 0]\n[2, 0]\n[2, 0]\n...\n[2, 0]\n[2, 0]\n[2, 0]]"] ;
663 -> 669 ;
670 [label="entropy = 0.0\nsamples = 1\nvalue = [[1, 0]\n[1, 0]\n[1, 0]\n...\n[1, 0]\n[1, 0]\n[1, 0]]"] ;
669 -> 670 ;
671 [label="entropy = 0.0\nsamples = 1\nvalue = [[1, 0]\n[1, 0]\n[1, 0]\n...\n[1, 0]\n[1, 0]\n[1, 0]]"] ;
669 -> 671 ;
672 [label="Fringed petal edges=not fringed <= 0.5\nentropy = 0.006\nsamples = 17\nvalue = [[17, 0]\n[17, 0]\n[17, 0]\n...\n[17, 0]\n[17, 0]\n[17, 0]]"] ;
636 -> 672 ;
673 [label="Leaf blade edges=entire <= 0.5\nentropy = 0.004\nsamples = 7\nvalue = [[7, 0]\n[7, 0]\n[7, 0]\n...\n[7, 0]\n[7, 0]\n[7, 0]]"] ;
672 -> 673 ;
674 [label="Flower petal color=yellow <= 0.5\nentropy = 0.003\nsamples = 4\nvalue = [[4, 0]\n[4, 0]\n[4, 0]\n...\n[4, 0]\n[4, 0]\n[4, 0]]"] ;
673 -> 674 ;
675 [label="Leaf blade edges=teeth or entire <= 0.5\nentropy = 0.002\nsamples = 2\nvalue = [[2, 0]\n[2, 0]\n[2, 0]\n...\n[2, 0]\n[2, 0]\n[2, 0]]"] ;
674 -> 675 ;
676 [label="entropy = 0.0\nsamples = 1\nvalue = [[1, 0]\n[1, 0]\n[1, 0]\n...\n[1, 0]\n[1, 0]\n[1, 0]]"] ;
675 -> 676 ;
677 [label="entropy = 0.0\nsamples = 1\nvalue = [[1, 0]\n[1, 0]\n[1, 0]\n...\n[1, 0]\n[1, 0]\n[1, 0]]"] ;
675 -> 677 ;
678 [label="Leaf type=simple <= 0.5\nentropy = 0.002\nsamples = 2\nvalue = [[2, 0]\n[2, 0]\n[2, 0]\n...\n[2, 0]\n[2, 0]\n[2, 0]]"] ;
674 -> 678 ;
679 [label="entropy = 0.0\nsamples = 1\nvalue = [[1, 0]\n[1, 0]\n[1, 0]\n...\n[1, 0]\n[1, 0]\n[1, 0]]"] ;
678 -> 679 ;
680 [label="entropy = 0.0\nsamples = 1\nvalue = [[1, 0]\n[1, 0]\n[1, 0]\n...\n[1, 0]\n[1, 0]\n[1, 0]]"] ;
678 -> 680 ;
681 [label="Petal and sepal colors=green to brown or white <= 0.5\nentropy = 0.003\nsamples = 3\nvalue = [[3, 0]\n[3, 0]\n[3, 0]\n...\n[3, 0]\n[3, 0]\n[3, 0]]"] ;
673 -> 681 ;
682 [label="Parasitism=not parasitic <= 0.5\nentropy = 0.002\nsamples = 2\nvalue = [[2, 0]\n[2, 0]\n[2, 0]\n...\n[2, 0]\n[2, 0]\n[2, 0]]"] ;
681 -> 682 ;
683 [label="entropy = 0.0\nsamples = 1\nvalue = [[1, 0]\n[1, 0]\n[1, 0]\n...\n[1, 0]\n[1, 0]\n[1, 0]]"] ;
682 -> 683 ;
684 [label="entropy = 0.0\nsamples = 1\nvalue = [[1, 0]\n[1, 0]\n[1, 0]\n...\n[1, 0]\n[1, 0]\n[1, 0]]"] ;
682 -> 684 ;
685 [label="entropy = 0.0\nsamples = 1\nvalue = [[1, 0]\n[1, 0]\n[1, 0]\n...\n[1, 0]\n[1, 0]\n[1, 0]]"] ;
681 -> 685 ;
686 [label="Flower petal color=blue to purple or pink to red or white <= 0.5\nentropy = 0.005\nsamples = 10\nvalue = [[10, 0]\n[10, 0]\n[10, 0]\n...\n[10, 0]\n[10, 0]\n[10, 0]]"] ;
672 -> 686 ;
687 [label="Petal and sepal colors=pink to red <= 0.5\nentropy = 0.005\nsamples = 8\nvalue = [[8, 0]\n[8, 0]\n[8, 0]\n...\n[8, 0]\n[8, 0]\n[8, 0]]"] ;
686 -> 687 ;
688 [label="Flower petal color=blue to purple or white <= 0.5\nentropy = 0.004\nsamples = 6\nvalue = [[6, 0]\n[6, 0]\n[6, 0]\n...\n[6, 0]\n[6, 0]\n[6, 0]]"] ;
687 -> 688 ;
689 [label="Calyx symmetry=radially symmetrical or bilaterally symmetrical <= 0.5\nentropy = 0.003\nsamples = 4\nvalue = [[4, 0]\n[4, 0]\n[4, 0]\n...\n[4, 0]\n[4, 0]\n[4, 0]]"] ;
688 -> 689 ;
690 [label="Petal and sepal colors=green to brown or pink to red <= 0.5\nentropy = 0.003\nsamples = 3\nvalue = [[3, 0]\n[3, 0]\n[3, 0]\n...\n[3, 0]\n[3, 0]\n[3, 0]]"] ;
689 -> 690 ;
691 [label="Petal and sepal colors=blue to purple or white or yellow <= 0.5\nentropy = 0.002\nsamples = 2\nvalue = [[2, 0]\n[2, 0]\n[2, 0]\n...\n[2, 0]\n[2, 0]\n[2, 0]]"] ;
690 -> 691 ;
